let neuralNetwork = [{"biases":[-1.34010989785139,1.59964235571757,-0.167411312278304,0.820799249846018,-0.643847819525617,-0.453635305301899,0.956020954614765,-0.652694267868656,-0.49402443802101,0.299203377341108,-0.289188405642228,1.73807392104849,-0.0419889971501481,0.624813913421963,0.0920203147820749,0.0171459215870256,-0.172685914907095,0.132137231915028,-0.325154511289498,-1.35029770601212,0.413482087762825,1.05674284714483,-0.358616824233653,0.32483943189314,0.172639641809424,-1.60305612414538,-0.475593060642848,1.84732134741374,0.444193904284721,-0.130606180812589,0.344312009760726,1.92332524508566,-0.797056278632695,0.586063115755697,-1.04021446114796,1.00476419530389,2.49742889029069,1.08200913178356,-0.188188564999234,-0.405484140612809,-1.44314738748746,-0.556552794727077,0.511921687118399,0.301612722313309,-0.421656488122085,-0.0795083259215631,1.24547134798023,-1.16637415444349,0.133181210002701,0.35872750911843,0.138694095841057,-2.04543234561115,-2.05064525758229,-0.524949356614305,0.979687448875183,0.253318657518498,0.22074430344794,-0.843292207045188,-0.69946776350766,-0.203059873724767,-0.585998154314919,-0.976505398246826,0.481026358571408,0.190198962572601,-0.530669727366468,-0.00902639879637094,-0.913283387890889,-0.59113411499586,-1.03405525092849,-0.157207439070772,0.176134274639892,0.0693722226893636,0.131276911914883,0.494709279139665,-0.47188709483757,-1.39477190523717,0.607899547754396,-0.239046630924398,1.10822188067888,0.307139287327472,1.82824918485453,1.12817425308357,-0.968539249087396,0.10401814884625,0.358709855828751,-1.53976692774563,1.24150148295873,-0.496440412704774,-1.02836985744231,-0.342776141889942,-0.215909958013712,-0.479547499849623,1.60272052457207,-0.172183972041688,-1.1396141152551,-1.91219331829631,-1.32809431229368,-0.224567215840131,-0.562068324673685,-1.43073410256754],"weights":[[-0.0590009288869681,-0.0247726041495393,0.0597693851311578,0.0149486429787848,-0.0849563465645288,-0.0686430640023725,0.054854315164773,-0.075921772498859,-0.0427295564963255,0.00642329004814589,-0.0412290709967191,0.0452352263402663,-0.0359085665309781,-0.0075414524771595,-0.027882432832938,-0.0701006010420481,-0.0573126391778433,-0.0204928487598353,0.0413474106842926,-0.0457550324580621,0.0281597315752177,-0.0228372056204631,-0.00133592574421812,-0.0111322419867846,0.0181242979577288,-0.0185926980628785,0.0249224846949206,0.00324865270957542,-0.0443872272936473,0.0315680345417773,0.015076397258522,0.00835251349411682,0.0143860604683889,0.108346309336157,-0.00185760672114962,-0.0405395061157269,-0.014875058582637,-0.00929122337277382,0.00293862291423762,0.00112513682684345,-0.0100292521174533,-0.0312960557719699,-0.0211799363029429,0.0326674209898052,-0.0171246288168733,0.0243154190169603,-0.0760069736864475,0.0182578134633883,-0.0248523326588389,-0.00757458918571134,-0.00824830169013629,0.00158135976491674,-0.0347804534149824,0.0479059376276749,-0.0779953538922812,-0.00959148006142208,-0.0239981639463989,0.0174889848492684,0.00782335932069391,-0.0445830467543452,-0.0375802928454279,-0.0457166990310549,0.0129971379086652,-0.00943298571785245,-0.0400639960046321,-0.0166856280034432,0.000955336166264936,0.0158947965427477,-0.039472862483441,0.0496760889380863,0.00905002606028463,0.0207118346842252,-0.0123174838878785,-0.0290491221812472,-0.034931623368011,-0.0297278210671456,-0.044616784330033,-0.00367637343037201,0.0181168842465476,0.0227837590297905,0.00140855030405398,-0.0240325171974922,-0.0317412245049782,0.0573771594181129,0.0429922737484177,-0.0361391543897987,-0.0489989579967909,-0.0129570222856555,0.0526753234638701,-0.056531318485765,0.0324760048878979,0.0261520452987973,-0.0463267976163008,-0.0129025163461515,-0.041744997113788,0.000676102610882471,-0.0491283473498294,0.00999231760274024,-0.00716848897424611,-0.0540887470674124],[0.0760027643957883,0.0404894529721877,0.026599557194476,0.00647123728755786,-0.0240550720438688,-0.00907257603948556,-0.0336563416379747,0.0105462648600941,0.0491212535085058,0.0243867090660308,0.0200181530728165,0.0366952398238116,-0.00277016967347131,-0.0492791619332064,0.0124347477158782,0.0118036244479968,-0.0369621936938007,-0.0183827039823594,0.00526944855379216,-0.0220668827025847,-0.0224665499309916,0.0297289974193675,0.00742190680256889,-0.0133853524262916,-0.000822859162038513,-0.051234777294262,-0.0655187957332455,-0.0420375512776284,-0.0492889585890286,-0.0289665363731451,-0.0273219725700034,-0.00881607056730727,0.0290266371470341,0.0706417324779619,0.0162499847595537,0.00407647676595342,-0.0305192432977165,0.0334397841033617,-0.00169708356520591,0.0402316289253489,0.0303090559844101,0.0296439751915447,-0.0214893781384953,-0.070647341297663,0.0321621903077175,-0.010915849056557,-0.0101104329309995,-0.0121185276084631,-0.0478316114245431,-0.00480003433788042,0.000883006247834809,0.00319318006932477,-0.0136300047854869,-0.0220977754621366,0.0230643094984734,-0.0306954507326838,0.0293006744246723,-0.0183072709522743,-0.0294717893396673,-0.0397919368356866,-0.0799268217634474,0.0266808897185386,0.0329811472168422,-0.0315836022338352,-0.0170731217670647,-0.0480898110375955,0.0232421837456061,-0.0973514012877086,0.00252653101507073,0.0277538915450776,-0.0104128370024363,0.0450208303578857,-0.000320342055781982,0.0498396092340703,0.0185137095592341,0.00575118847520653,-0.00868006310711931,0.000675946137366749,0.0303243637144982,0.019995526446909,-0.0323839051694743,-0.00410179444106362,-0.00253021489180821,0.0307639989420822,0.037592182817872,-0.0193372620001162,-0.00423269634770127,-0.0232244016064569,0.0501721081120843,-0.0320824193650168,0.02495277105547,-0.0364625088998663,0.0629508657449906,0.0391996601953737,-0.0234861222781282,0.0196921315963502,0.0316173563463671,0.0125529562396514,-0.0422112014335804,-0.0385454138516391],[0.0128231225075184,0.0121502116150466,-0.0591410921253863,0.0418864587114163,0.0031381100612044,-0.0214757539221092,-0.0228017885902611,-0.0478846530307146,0.06707094754331,-0.0581707629859171,0.00432289017400898,-0.0302420134248098,-0.0324474848010253,0.0137541609297263,0.00818162559314441,0.0053376541673067,-0.037184582739628,-0.0204142789165872,0.0158637585428712,-0.0961130479670484,0.054812830809813,0.0253974719806348,0.0146329356802215,0.0434263598096387,-0.0458210916131599,0.0340866870653994,-0.0261322366046028,0.00674560744017412,0.03055240466297,-0.0233026420201682,0.0445155934560003,0.00623616056131366,0.0698212169731656,0.0154024116438759,0.0455853667498211,-0.0610610506496949,-0.0135797190356073,-0.0131683690221279,-0.0524835162024042,-0.022394443200378,0.0409650797377717,-0.0163272513418168,0.0248594158448697,0.0129880234894383,0.0587850182636021,2.30188387445698e-06,0.0428991081624065,-0.0572840421039596,-0.00845571686958066,-0.0180122988940221,-0.0109251616342317,0.0314417296331259,0.00992833922288295,-0.0113359372392011,-0.0442232115126764,-0.0472754407293189,-0.00821951109036262,0.00451857889416227,0.0174798024239766,-0.00465282267854078,-0.026848681208019,-0.0381237184336543,-0.0761899470862474,0.0468945301632193,-0.0214466180409251,-0.0353094849778271,0.0124554344293787,-0.0277977187221967,0.0352496737514417,0.0292960922590872,0.0924816290237788,0.0327960516995583,-0.0152769067673656,-0.0117863614719526,-0.0891575410999506,0.0007840027704835,0.00954990383671259,0.0239123678212335,-0.00216822133402152,0.00324898225037388,-0.0330872616394256,-0.0656565596878736,0.0317515646359641,0.0584022471165612,-0.0411378353556736,0.0448258269837888,-0.0399233464848273,0.0263006767313647,0.0205758679414669,-0.0572661042860665,0.00572368161754154,0.0351745467246397,0.0152668592585415,0.0637313618245738,0.0158485620215683,-0.0079662012583378,0.00710405184061296,0.0144589370683095,0.0159456518279832,0.0682356065709467],[0.00813548623907863,0.0192609953278781,-0.00560340506665399,-0.0159023344130367,0.00703888261877722,-0.0542742655524722,0.0560266478338211,0.111142058046499,-0.0380796310462697,-0.0205937101196603,0.0283880235812155,-0.00346223709457835,0.0285932935184667,0.00767719425824342,0.0750363677694428,0.0160840532682962,-0.0147348213587883,0.0119150123336851,0.0225300196050193,-0.0187725941579744,-0.0207155440685767,-0.031556700677489,0.0183772227310336,0.00148585963011286,0.00159613381581313,-0.0380001578921087,0.0368005724979946,-0.0469274195515637,-0.0621901204053028,0.0289975268438192,0.0014968851896447,-0.0178186564290832,0.000223295523375805,-0.0556517977263512,0.0287679808215732,0.0198035937820118,0.0643642878331467,-0.0145158706294325,-0.0381604100113247,-0.0220476584410646,0.00231269920620101,0.0363891371415514,-0.0121466089196791,-0.004148812685876,-0.0787750026055069,-0.00791975263046642,0.00451532913128468,0.00593574785792365,-0.00727086158304083,0.08490103468924,-0.00811964882348508,0.0374760235955786,0.00652015280651645,-0.0165798847980196,0.0292701249849261,0.0403050378440802,-0.0240053119479819,-0.0098204653206634,-0.00163534546965674,0.0296043842286412,-0.0400399931974331,0.00908048145683544,-0.00431201223280382,0.00245352787186664,-0.0273601169538182,-0.0171327365219084,-0.0595323140572627,-0.0348587465297787,0.040057847235964,-0.0446706465889122,-0.0449566105985841,0.017038707798063,0.00335141089858149,-0.011701828863992,0.0257593539578605,0.0275531249104793,0.00658200958563406,0.00452616645649568,0.043290111170515,0.0402685114996773,0.0374084245313779,0.0261314140942325,-0.0571573294502298,-0.05078294095639,0.00998469964409012,-0.0772676258083981,0.0387994197979193,0.0150746228221254,0.00595742491284306,-0.013638196071298,0.0125229103848664,-0.0669015764315257,-0.0146126765283884,0.0212218060683764,0.0276915751331871,-0.00586985322221867,0.003768772777574,-0.0129698055797671,-0.0190483244668773,0.00494013965849788],[0.0229223034745878,-0.0369924840407527,0.00216482779642807,-0.0407077350419585,-0.020931851844258,-0.00176679872844846,0.0400426223578406,-0.0106565682512727,-0.00713070601448046,0.027893884660189,-0.0109703327074214,-0.00596683612719561,0.0136457992342046,0.00328994420386063,0.0566068041646444,-0.0151073362203546,-0.0249788135088238,0.0649606866765509,-0.0226737456459423,-0.0522544092512609,0.0806345471078075,0.0125633710314389,-0.00922981314215113,0.0448743980540549,-0.00955428939651752,-0.0087229167484531,0.0762051917210454,-0.0392320563933995,0.0102929384898336,-0.00647570624214666,-0.042176195385342,0.010867637940232,-0.02621646634122,0.0704317122877243,0.0419082183444793,-0.0104070444462438,-0.0163365163073552,-0.0113704952186557,-0.00692682944924434,-0.0134659318705651,0.00664572291971679,-0.0199612328764851,-0.022447184474517,-0.0101988076772146,0.0342768846589133,-0.0675496564077646,0.00839894138326857,0.0453293130066275,0.0238891271575849,0.0294646909873969,0.00318285707978871,0.0429089386674811,0.0142329933098751,0.0483786777562085,0.0115631995665942,-0.0102425329682659,-0.00336609542279155,-0.0160300236142226,-0.0463018053142025,0.00699707060539282,-0.00290769049554364,-0.00816232091704461,0.0117730342818454,0.046400827402742,-0.0506166429961946,-0.046433574623031,-0.00286492499718623,-0.0157340109118978,-0.0209085787296538,-0.00977208689562245,0.0292650186256104,0.0479781776265193,-0.00880782003684649,0.0147315867447295,0.0211253047464922,-0.0027950841845548,0.0146273402059905,0.0143295740869988,0.0309882564380698,0.0055337732045217,-0.0277651918169808,-0.054370587097873,-0.0543709978172179,-0.0597236584066076,0.0330002967541047,0.00424480580976779,0.018828530464764,-0.071950094491711,-0.034032613119365,-0.0298159934510933,0.0250307501147525,0.0715300030463309,0.0052565430518132,0.0546967086106216,-0.0104858625782953,-0.0244472517672991,-0.047165533603553,0.0162619283505397,-0.00342802342290077,0.0222189245430863],[-0.0100425143573249,0.0502733629208623,0.035099347451772,-0.01182009163343,0.00770734589787784,0.048756179278086,-0.0576530842530501,0.0137948854877575,-0.0203431509830665,0.0363670565997032,-0.0185582926744099,-0.0214629877463624,0.0336081156389059,-0.0624178106144624,-0.0228919723234444,0.0533827362353408,0.00714069872395965,-0.0513893232837062,0.0250371443503287,-0.0165293603086311,0.0175825278029394,-0.0494911282276115,-0.0503683765100876,0.00536055262341289,0.0412155485475826,0.0486052844531734,0.0228337105273264,0.0291840409450322,-0.0227265211078548,0.0311136681541805,-0.0368695256663625,-0.0457924629812569,-0.0260266556985791,-0.00715589648383741,-0.0192270189817645,-0.0567102429848522,-0.00389205585062319,-0.0333369541448024,-0.0299327077134122,0.008457630114585,0.00808064875209877,-0.0212282134857296,-0.0168518964231664,0.0143604578269799,0.0144364057391304,-0.0505323563940888,0.0286666691321805,0.00875082801671573,0.0291530120965259,0.0152104585869059,-0.0379450477081751,-0.0007969535263908,0.0139378072585905,-0.0372058807189344,-0.0392346203798085,-0.00064729726267749,0.0265032757814618,-0.0435075157531679,0.0307864158704165,-0.0020157716838383,-0.0263770629737249,-0.0626508853150324,0.0532250697031474,-0.0212337486202049,-0.0489754574842901,-0.0421235418053304,-0.0199497910866854,-0.0528283101575055,0.00916699948047889,-0.0118309486482132,0.0278396039859246,-0.0178641035702379,0.0257148833258114,0.00399294570918638,-0.0116733989114878,0.00696648788565052,0.011947334822264,-0.00105724014585033,0.0401029890657757,-0.0252350712150975,-0.00253490555436376,0.00793820620602862,0.0287883145749218,-0.0773236578290342,-0.0519652885240021,0.0279286028979233,0.0118378549621561,0.0347052454130525,-0.0208370039159478,0.0345141053855523,0.055519807478839,-0.0544350171594194,-0.048717554539122,-0.00273465698647278,-0.0217838033675265,-0.0170589364691496,0.0677066094498415,0.045456463511873,-0.0368376631205047,-0.0669075157137548],[0.0537292853006772,-0.0522023397768716,0.0107837961167476,0.0119771950630239,0.0119099255387965,0.00221654902813404,-0.0514736962985736,-0.00704450660543038,0.0189486601297509,0.0188371178852695,-0.0177776172869862,-0.0960485687554951,0.0149765408919923,-0.0052948548102148,-0.0100015420919193,-0.0539069611525651,0.0610600554843285,0.0700718768482281,0.0405651952520531,-0.0766417644018473,0.0205046622685954,0.0835265948791512,0.016534175936586,0.0358907710183425,-0.0311151149313808,0.0570129742969351,-0.0495948954951342,-0.0660780052227946,0.018912776923503,-0.0107949891601158,-0.0388073305946367,0.0423224209360702,0.0310047950298383,0.0327793892348329,0.015689769589817,0.0178798526458929,-0.0538205143126891,0.0436442828120785,0.0198018779115105,0.0580501978548008,0.0590494089505135,-0.00450536325856608,-0.0163380357735935,0.00184968108680335,-0.0258549331158723,0.00813103563516862,0.0375165814661054,0.0670027351725975,-0.0639823710772838,-0.00436666736002289,0.0188203841895857,-0.0068575562882855,-0.0272439675825444,-0.00459077854216218,0.0154995608460182,0.0256841892820719,-0.00383941975595765,-0.0290944119677392,0.0372998214976597,0.0161225582806728,-0.0411113044229785,0.0154018309231204,0.0160901410611406,-0.00692721468387596,-0.0185020654002395,-0.0037985960116989,-0.034413843126958,-0.0318335911024464,-0.0485781710423658,-0.0725939536022803,0.0427351647020362,-0.00677699491996441,-0.0244549183383731,0.0113444134761978,0.0659760081470366,0.0175288361882377,-0.088503194460609,0.089106317411159,0.0233338282785409,-0.0159821180241297,-0.0766624331595602,-0.0337745172984292,-0.0823080620419882,-0.0143536815592023,0.0246078981343372,0.0113621601553486,-0.0395985602248307,0.0606220201642529,-0.0619953408752184,0.0251689774516832,0.0612037504374634,0.0305462478424614,-0.0295726376263805,0.0111736924248243,-0.0110956218099895,-0.0447135331072164,-0.0255635038096419,0.0393123914193834,0.0215773298762238,-0.0173300815245503],[-0.0301569166528476,0.0219796381627811,-0.011763694350725,-0.0465117525398522,0.0286113982439613,-0.0106168721403755,-0.0459933571441517,0.0676242650403681,0.0332520006087369,0.00691724488281154,0.0305853373637698,0.0331258148662125,0.00133639824012445,-0.0270393278522223,-0.0307599559755669,-0.021577230930926,0.0124162789207436,-0.0125076341762429,0.0181681608548397,-0.0327735461543118,-0.00109865197429814,-0.0180902662448111,0.052112928667579,-0.0209191746875092,0.0424652867641873,0.032707708635777,0.005182458805615,0.020053898316261,-0.0163338535010553,0.014158580353205,0.00789577688076682,-0.0106457240476557,-0.0766069349403097,-0.0365696814154669,-0.000320041032905622,-0.00854588395311585,-0.00300677744560137,0.0431569508174742,-0.0100419864019874,-0.00218232430934184,-0.0336496959039278,0.0242289237418892,-0.0165004498293536,-0.00850846675277452,-0.0377739366375098,-0.0398699468255431,0.044825616274889,0.0254306469807384,0.0438757863137871,-0.0153691726870541,-0.02526803927993,-0.0406284890709456,0.00281770049572027,0.00865671160042721,0.0127644328310915,0.0234095361233792,-0.019575245031019,-0.0172430501519115,0.0369044810686509,-0.044751930717072,0.038332869508156,0.0374279748824137,-0.0291848660400935,0.00844779408365591,-0.0362694228635788,0.0600147576558679,0.0506356796884752,0.0141269018009755,0.0304654309284972,-0.0341049555565773,-0.0406845320326257,0.0716916640570224,-0.01976280519141,0.0191194108768754,0.0243469882018008,0.0170148993575181,0.0336369106242652,0.0404237627459871,-0.0247227747146237,0.0132414962674847,0.025221477228345,0.0220383787987129,0.0186245773294795,0.0469586833800692,0.0191106701847306,0.0357816590503694,0.0625071820799264,-0.0204057982599914,0.0171891564726251,-0.0127581299715289,-0.063851230011401,-0.0743573631261879,-0.00741278549226928,-0.0303593327150692,0.0315695959214174,-0.0281340684861007,0.0429756649022626,0.0314527221052465,0.0218179271753868,-0.000350839192501589],[-0.0495204582961674,-0.0275456442139365,0.0177280802896941,-0.0282379605222857,0.0179870649047574,0.0655278896857457,-0.00734399575236034,-0.0453516755502548,-0.0391735321768134,0.0584348537593278,-0.000364243353879357,0.00403771057818571,0.0959997241615057,0.0429406056791041,-0.0723831070567456,0.0136756548423615,-0.0603864584076926,0.0388920659620201,0.0190461573235258,-0.0359022685918576,0.0448656919942462,0.0136483778253819,-0.00122622767273326,0.0315980391840401,0.00251029157315826,-0.109293074720508,0.0144726253444305,-0.00800367657409569,0.0176495106683738,0.0389697546046218,0.00311763040015358,0.0500178795527037,-0.0768804572479684,-0.0357626418201492,-0.00633705189143523,-0.0512853357060224,-0.00199288134368224,0.000307460453894187,-0.0138209207872521,0.0371981256089896,-0.0106998909323928,0.0124015168234336,0.0447135191292018,-0.0343897537961948,-0.000885605697187243,0.00579846153988547,-0.0223150839389233,-0.0397893624448608,-0.0305108278734705,0.026592140517249,-0.00160343399268722,0.0300061965982418,0.00335339441995358,0.000688000985721502,-0.0331464160723461,0.0189824651345575,0.00292398976108289,-0.0139019274826696,-0.00291529267453422,0.020498233920738,-0.0295765895486454,-0.00825027809442446,0.0134527189033838,-0.0384312149310158,-0.0229518930397234,-0.0273810043608469,0.00532009797501157,-0.0366671178137625,0.0105926740992746,0.00800720652392327,0.0178698252021757,-0.0435270744260241,0.00326906784040879,-0.00250587407166405,0.0272515239105079,0.061421048607669,0.0144638116298863,0.0102095136857074,0.00108007573730575,0.0616606382949576,-0.00656386148560539,0.0304972529714223,0.00388785757117396,0.0393512255018484,-0.00714525335358869,0.0123868614322322,0.0359936524848167,0.0142495210099168,-0.0106695228789904,-0.00554448715148438,-0.021224981667681,-0.134347184731607,0.0494940887437736,0.00895279853598004,-0.0256099930929965,-0.00771108465851987,-0.066038672169395,0.00171057221174363,0.0584749837920199,0.0558139368632534],[-0.0277099840557595,0.0401186054305894,0.0065836705619143,-0.00979607326621443,0.00106402658041014,0.00622669588262713,-0.0339750506620017,0.062379317288652,0.0160628321434899,0.073693216582291,0.00346612916546718,-0.020315182789396,-0.0449039657581197,0.00748416165914997,0.0202839636055419,0.0313289284857915,0.00821176155792818,0.000463094581122445,0.00261609641649365,-0.00253221250363355,-0.0375175483458868,-0.00104860270112066,0.0415840781641744,0.0502625463639835,0.0601793597857409,-0.0334100524539329,0.00146099184541148,-0.0346626834207188,0.0162181906620507,-0.0540698296070092,0.00323055431201889,-0.0549599611269439,-0.0182349909604011,-0.00615444426134439,-0.0129954083336758,-0.0507222822464399,-0.0327995992288163,-0.0528437438577497,0.00809268012372422,-0.0793925964617316,-0.00587159674364774,0.0343854184604645,0.0735987641956948,-0.00877083578453884,0.0135890652075026,-0.0534974760444902,0.0893949353118871,0.00747630246193898,0.00485221631499531,0.0407323665346889,-0.0364617106481753,-0.0405442856350988,0.0213691949898262,0.0286391694903785,-0.00941282349004531,-0.0259183156640359,0.02076096485922,0.0231579768330132,0.021046569042267,-0.00914328204001594,-0.0216302858682254,-0.0222509819404507,-0.0460413949281078,0.0639675664836585,-0.00376590353418813,-0.0376266975467397,-0.0527939820362005,0.0349005755210648,0.00536690456123997,-0.0489996648872005,0.0101843814048369,0.00654380608096181,-0.0451958815908435,0.00202279581389103,0.0288862331959989,-0.00494674525315401,0.0210009464690521,-0.0454808815841813,0.0489906320771567,-0.0043063937666658,0.0354217860860401,0.0188640478266946,-0.0518160023908567,-0.0122515573559981,0.00651002251962879,0.0120786357559404,0.00234075883579826,0.0125857573342347,0.0186273777782481,0.0118322612796461,0.0337418322146725,0.0434835873340889,-0.035247973736083,0.0183596072385167,-0.0561362662613851,0.00163389185373434,-0.00760871318170975,-0.000991854094267208,0.0277874628829004,0.0193273448627308],[0.00739866960089787,-0.0254992846978332,0.0139285644937925,0.0377702286018738,0.0183034272610989,-0.0496332502705718,0.0569638227696821,-0.0312429308594066,0.0132827717142646,-0.0249409670019851,-0.0639083330485476,-0.0244349697191761,-0.0409684570351976,-0.00710467495551962,-0.0198902136055001,-0.00216607007695266,0.0697638458314083,0.0277982519632519,-0.00220825331433799,0.0329674328240918,-0.0421118276778815,-0.0474635867563391,0.0551695079029986,-0.0490067595918533,0.0105788641003922,-0.0121875369707776,0.0287346606351838,0.0278736964037783,0.0724098711367212,0.082830143689771,0.0179694577106683,0.0134786146145283,-0.00927892033031322,0.00700643498342969,-0.0434121311542046,0.00436579533474936,0.0511493802036644,0.0397511276841588,0.0188587988885503,0.00195900329992558,0.0721442795228841,-0.00655971988410039,-0.0101697383356486,-0.0246352340995216,0.0219290515261963,-0.0223377938063748,-0.0584006099489915,-0.0362903515779827,-0.0540882341260937,-0.000461266675367712,0.00344142975829715,0.0402567394990622,-0.0485406617512507,0.0214583454551256,0.0115241713782923,-0.0115251136410852,0.0121535683863963,0.00250618758893108,0.0234073523007322,0.00204371305875963,0.0104704549455254,0.0184648046420685,0.00757022708110773,0.029508909751532,0.011161456811419,0.0134190075923253,0.0411825079829544,0.0529103598572988,0.023978657737252,-0.0312441212336638,-0.033225528063307,0.0383284014535659,0.0224417901777936,0.0253374354248075,-0.00403794727299064,0.0246652557628918,-0.0207625082503625,0.0504372135015957,0.0525474762891695,0.00185106425274649,-0.036709183198466,-0.0460977705605481,3.70848691964812e-05,0.0681917872050072,-0.0160599635317734,-0.0958710516810484,0.0456828361262699,-0.0368688113033991,0.00975226185906895,0.0229791564884807,-0.0277046814755606,0.00748853840609468,0.00574454807618902,-0.0232098017182527,-0.0562928871517733,-0.0114387432923762,0.0447839793497233,0.0742666681805045,-0.00898060905503607,0.0258027878666754],[0.0146790119701358,-0.015482650112199,-0.0607586703077891,-0.0164021350792859,-0.0238923294809494,0.0288175967956002,-0.0262051291835883,-0.00567667977504029,0.034295192578664,-0.054862333951944,-0.0364403751468723,0.0130894242648382,0.06337313817831,0.0334025915692052,0.057620142738312,0.0436538642820065,0.00442529284102883,-0.0277636427683606,-0.0526034042231927,0.0149119642961462,-0.0180540959305136,-0.0656089733625433,-0.0841601725321737,-0.0262561507490099,0.0184683054981182,-0.0339449845835317,-0.00422676639092339,0.0492327770196659,-0.00574523077456552,0.0121346839641398,0.0142296958546699,-0.025330337501944,0.0157976567162435,-0.0139166964094191,-0.071643472826973,-0.0635322005410574,-0.0181073170099551,-0.0517666544485381,-0.0331046192522021,0.00322813997531182,0.0740481321399784,-0.000321668722270444,-0.0600949546478782,0.0186534062112318,0.00623005840152675,-0.0124199195268136,-0.0898828735534494,0.00958783252080197,-0.00962336943846086,0.0123531197457921,-0.00981867718586105,0.0267642416155471,-0.0691832015577951,0.0093377980939814,0.019363559545323,-0.0195446711566157,0.00225030477988548,0.00203670695772669,0.0506012050926282,-0.0441457001470316,0.0176597450400902,-0.00823170336484374,0.00255803272938,0.000292489125417526,-0.00313343356946413,-0.0245112873078663,0.0414756468588463,-0.0904301281720678,0.0208969292907492,-0.00803174944249811,-0.00967377285192452,-0.0168118093081225,0.0316429964971988,0.0191879992687897,-0.0343551606901059,-0.0317101582867933,0.0277084869623111,0.0579242046966413,0.000592187107574727,-0.000342233572986125,0.0150793036997502,0.00190852694893342,-0.015043872887221,-0.0425221751616014,-0.00224044360870937,0.0265841068936416,0.0109960973021113,-0.0319173751732674,-0.00131247807586562,0.0390047232555523,0.0358215364203191,-0.0279683428451029,0.0515418714000617,0.00378652976984626,-0.0262157585474368,0.101269835582999,-0.0366376015529775,-0.00559375997875354,0.0158409724120217,-0.00933660966284996],[0.0241514131523742,0.0214232855424331,-0.00913809478803384,-0.0172133585940269,0.06044630063656,-0.0803137449658899,-0.0207446382406047,0.0492565532053373,-0.0404016884778107,0.0175274199257724,-0.00282652318582659,-0.0548785778942371,-0.00994408836473172,-0.018333807076974,0.00941735682112421,0.0174280224753114,0.0459908817563977,-0.0254305976103165,0.0332405695513759,-0.0708557548361065,-0.0415470947516385,-0.0332965477491104,-0.0243320582893727,-0.0584997628642898,-0.0338922178327303,-0.00697279812987589,-0.0340689317892544,0.0453573227000283,0.0350855585018051,0.0126791641547059,-0.0561942866186078,-0.0369358583143182,0.00829439482837291,-0.0475521241683594,0.0603919184381163,0.00851102208258384,-0.0170026308143118,0.0485284229711905,-0.0491431776721337,0.00225771354447675,0.0171987188800849,0.0409897056660401,0.0224613679403791,0.00791354252893767,-0.0471177383249896,0.0271937344306626,0.0465857783344148,0.0202361774653502,-0.0357806783816292,-0.00418381604724537,0.0378149960449801,0.000413102024174255,-0.0231194782185652,-0.00460845986772048,0.0288521341065736,0.0155533066344511,-0.0131864151060155,0.0314857174102275,0.0278836735089235,-0.049453216377385,0.0581459945824295,0.0104730240933717,0.0124887114675078,-0.0211508497137804,-0.057339801644362,0.0388718616236973,0.0556900927097367,0.0213842403365978,-0.0171787695282862,-0.00347071377423528,-0.0104682973674891,-0.0010513696901808,-0.00194937523466881,-0.00450600910813651,0.0301264518077884,-0.0467760797470231,0.0171031816476435,0.0161527473407902,-0.0221946602930126,-0.058227052638435,0.0488027793314357,0.0380685538307431,0.0196124272108686,-0.0464304673011206,-0.00161224400937308,0.0036349571553357,0.0170148678340853,-0.0206535533484929,-0.0375573102318856,0.0392431990412749,-0.0213173176343381,0.00475763418243268,-0.00676553639000383,-0.0177796388408786,0.0330195432722692,0.0292215734232297,-0.0526347063130955,-0.0452871224460518,0.00311457854599174,-0.000237084699754634],[0.0800989609254692,0.0174734514081309,0.0137410225569467,0.022965287819474,0.00492533888085207,0.00292521154148826,0.0213546126393717,0.0184986810736067,0.0437280760502468,-0.00911371016988216,-0.0103691920139504,0.0116669593227952,0.0294275498260366,0.0337923488680654,0.0163868401741316,0.0537195718487766,-0.015097703457321,0.0364546978984245,0.108028736727017,0.0681213152621758,-0.0287281313485332,-0.0200274270696546,-0.0274901475163542,-0.0218079186359055,-0.0365565074491994,0.0413401069945997,-0.018057478876424,-0.00907331960992542,0.0525056567088369,0.0860519864517817,-0.00890816187171902,-0.0150223491341776,0.0277094882494824,-0.0993393166156619,0.0203914537801056,-0.0216119308294971,-0.0152697754312443,0.0323017115476281,-0.0162571902983617,-0.0191159961070189,-0.0101290210753087,0.0882445010624666,0.0128731378494712,-0.0401435729299941,-0.0202815849470313,-0.0594425165831149,0.0393462644828318,0.0107705835010904,0.00226212241663503,-0.0482406474254123,0.0187918607094791,0.0192174858065545,-0.00604186073485196,0.00714953709926159,-0.00448333838593137,-0.0323827163835003,0.0159243755609701,0.0504860710508241,-0.0529441422230659,0.00806067136482789,-0.0254379539173064,-0.0300603045029004,0.0177517871538971,0.0144363697174177,-0.0577578961471368,0.0461526261524142,0.0531480279539049,0.00628979217304316,-0.0313588210569898,-0.0237488969040397,-0.0640498501377379,0.015857890795524,-0.0162990255737183,0.00464090749506915,-0.0137805458671934,0.029182805871259,-0.0284747488558999,-0.0714663034986489,0.0403068583980708,0.0525569410103829,0.0489413364270826,-0.0646210278343326,0.00190131640510548,0.0405331789341082,-0.030438016349381,-0.0368096156186893,-0.0426085195494486,-0.0103114142702039,0.0191657182931606,-0.00264035978335283,-0.0525284254788659,-0.0565087265036759,0.0103279139458658,-0.0254925194607434,0.0255546640481797,-0.0168707230968438,0.0222092651072748,0.0150510109489649,-0.00637612026571193,0.0360088998892975],[0.00484230216750022,-0.0124665319311891,0.0391498113518006,-0.00421085513070155,0.0120474515962986,-0.014308162138405,0.00752492416639792,-0.035256876524719,-0.0730867402307695,0.0419190403701594,0.00542918011554894,-0.00253746020163587,0.0454771145127665,0.00335611876050832,0.0104610122847312,-0.0633916694794504,0.010514025295502,0.0104562634281089,-0.0788161081505432,-0.0345365390030227,0.0199084596473886,-0.0097365277057563,-0.0158480706588006,0.0470305550827801,0.0411168748443161,-0.0307269750352103,0.00216263073406607,-0.0511116215115082,-0.00423785083142957,0.0297997827846593,-0.00810285414705977,0.0602293445213365,0.0172511156769315,-0.00628287664218042,-0.0329605745593665,-0.0708603945684283,-0.0583966653255912,0.0475389966634295,-0.0604661416720996,-0.00123877764752373,0.0255596554645587,-0.0785770501042369,0.0158874527621739,0.0296058845731818,0.0625074653965327,0.0342888219169785,-0.061225621149969,-0.0334551496868129,-0.0505040556094235,0.0504463770343158,0.00584602909623259,-0.0182370073023783,-0.00110571701294788,0.0225482207152686,-0.011890415923347,-0.0212667106321328,0.0499994601824665,-0.0393894138333626,-0.0246838086818693,-0.0367661049947083,0.052424897364294,-0.00941783301604858,-0.0633804830632222,0.0213997553325853,0.0590404601900192,0.0203289588667899,0.0476922827984168,-0.0112945061607914,-0.0402463459039038,0.0477332487192372,0.0135076801544255,0.00607185513222909,-0.00299001319539377,-0.0367106389064603,-0.0134276060673344,0.0390130082774635,0.0624630722834093,0.000392624347955219,-0.0677561248288128,0.00433924490396366,-0.0703769296183579,-0.00978359741785926,0.0533474705492216,0.0254731369325761,0.0670197843571067,0.0464668932352634,0.0024560164007143,-0.018382949114658,-0.0298877329970019,-0.0142403782636796,-0.036074140271348,-0.018426705800262,0.0433062411800593,0.0218870426998179,-0.014143828676403,0.0300194944382814,0.0586536325935533,0.00546437982492548,-0.00772485629044503,-0.061793297165789],[-0.00233583185610434,0.0298367086994124,0.00893633065017134,0.0311811450327717,0.107256677624417,-0.00872081086345481,-0.0097701510590977,0.0252401985097793,-0.0597205664918534,-0.0402274933145108,-0.022560125341303,0.0104023769129086,0.0370857920359455,0.0154249081137301,-0.0348128105328746,-0.0210236724130324,-0.00276306934904601,-0.0162099347323782,-0.0249320435276736,0.026284407813852,0.0354749829189468,0.0176583060109046,-0.0652765550552657,0.0117442010467021,0.0432879103469882,-0.0760155275395219,0.0512240974616478,0.0108602360659606,-0.0501568597085966,0.000803441056712487,0.0356016179843727,-0.0434015392167858,0.0113460729970739,0.0119255422768589,-0.00432009666952408,0.0330851806947596,-0.0691553141515413,0.0275884080676335,-0.0108472462459579,-0.0130850517396636,-0.0126922879291313,0.0589527614495649,0.0610609962374933,0.00817963781822837,0.0183005695575271,0.00152755715276676,-0.00944147398531875,0.0521698178597262,0.037409621460057,0.0543185168709475,0.0348673367818036,0.0531415935910519,0.00768028946753294,-0.0381534586443981,0.00352849274870642,-0.0408135010878755,-0.0133219439281953,-0.0427720956968832,0.0101606258619058,0.00146125148828766,-0.0156933889614737,-0.0194426660697637,-0.0407432451618982,-0.00459758644029716,-0.0572463429439994,0.0657334763625855,0.0426805844599747,0.0129069716061117,0.0499693118907161,-0.0465604291594201,-0.036435906700374,0.0333232563488129,-0.039908518106509,-0.0123664477010256,0.048836182188571,-0.0181566266062854,0.0138182474666376,0.00650863081176848,-0.0145279004170038,0.0651043445436717,-0.00788466878538615,-0.110989052231804,-0.0117445902831313,0.00592413752924745,0.0133842799508002,-0.0546198730331964,0.0120314194308451,-0.0239959877675996,0.00637803107774771,-0.0598743916457159,0.00288464610834422,0.0597295647066493,0.0167906484443077,0.0280838116876734,-0.025645111906337,0.0525752190097567,0.0276373499752069,-0.0170833478513433,0.0304222229226907,0.0214326169625359],[0.0122538058388996,-0.0224594231471659,0.00197169310463041,0.058227293176019,0.00489466732844586,0.0269875708811803,-0.0406672845921596,-0.0496568682203003,-0.0282260586324583,-0.0224979437480049,-0.0326161255030214,0.0251786574405107,0.0113266932004308,-0.0168163431681331,-0.0360847558624864,0.0305868037839216,0.0143132314643048,-0.0133959623466442,0.00382168534304825,-0.0118061263914847,0.0140242005332686,-0.0410498757272703,-0.0156896327208185,-0.0537246039152,-0.0393708909254298,-0.0202568528227992,0.0176986532471617,0.0428767888461083,0.0370385385243958,-0.00187211263604673,-0.0170146457804499,-0.0266637209264034,0.0528022548688955,0.0941688938838127,-0.0180307729977497,-0.0423505792651203,-0.00196909232648688,0.0410330840174,-0.00513367137423545,-0.00444131515876333,-0.0173311470403136,0.00782042353924122,-0.00771910186533827,-0.0523802714341025,-0.0269490750146274,-0.0184525320746559,0.00243016128761821,0.0250924083406609,0.0187969985127245,0.00933272552460585,0.0379684683321192,0.0251557520001863,-0.000581541200836123,0.00707295033183486,-0.0644933305415235,0.0244101473821276,0.00948023685142812,-0.0181924306320922,0.0027328787057017,-0.0110788437058932,-0.0542683972034261,0.0464799141930003,0.0314701349771911,-0.00854748184527687,0.0981220010662201,-0.0217249810009763,-0.0160201739029308,-0.00715194909474898,0.0314208233196295,0.0535094935624633,-0.0416843455452636,0.00591420538584439,-0.0120303359743978,0.01973236743706,-0.0766551951403478,-0.00697948113606892,-0.00643763720293588,0.026026377137694,0.0253654463111466,0.033498405957858,-0.00820336205721711,-0.013528898722238,0.0346303230228919,-0.0438426083708321,0.00673637518331909,-0.0366361004779073,0.0431385224983206,0.00550072253906243,0.00340616571557111,-0.0578954913319104,-0.015559696343688,0.0291392937628453,0.0529424621585838,0.0134822318626107,-0.0272320734550519,-0.00194437158348626,-0.025302152665618,-0.0502410218461282,-0.0443129828061995,-0.00297306165112374],[0.053708794862681,0.00917362407243618,-0.00412788490398523,-0.00181347796202722,0.0101722992733661,-0.0459683596954551,-0.0236893679899487,0.0159590987083058,-0.0050213253487491,0.0219653737701999,-0.0379663515715701,0.05398791322285,-0.0507385554711503,-0.0254950476544015,0.0172495454163733,0.00395410898390282,0.0386429295449844,-0.0354549173491476,0.011862656264053,0.0370564093006469,-0.00737913932162207,0.0448759018586116,0.0365905774392787,-0.0462340530899727,-0.040824229511845,-0.00882704189071436,0.0268605721509743,-0.0473806586109558,-0.027917171026571,-0.0446416383846376,-0.00656934612109174,0.0443981548693479,-0.0810713718916233,0.00821221778658049,-0.0119370258075601,0.0113514665980264,0.0362105633939387,-0.0394211124940745,0.00248103974890339,0.0366079452132694,0.0307034158856579,0.0226499636865365,0.0255592120434382,0.0368443239673799,0.0652096458254351,0.0112523953103392,-0.0498031411965416,0.0877032071989075,0.079835596420119,0.0347627929085373,-0.0511739776767582,0.0511517797276429,0.0722734226110178,0.0405792414171129,0.00172406205868631,-0.00161314043999865,-0.0237184607605719,-0.0260277551466877,-0.0368534361406252,0.0437852237929718,-0.0120433493310386,0.00370450894700123,0.00731274828750104,0.0080403919064112,0.00677588733052509,-0.021714623729662,0.020874844494105,-0.0260228265657345,-0.10426359851084,-0.00498118298970947,-0.0393698114152688,0.0290936148752674,-0.0470309186141582,0.0283971587919247,0.0450243842533243,0.0435534372333944,0.0492885393955211,0.0261728442514192,0.00150944569805889,0.00504402295706319,0.0262494772862052,-0.0452288641945734,0.0149981493374103,0.00275458032191494,0.0199141790160647,-0.031288603050621,-0.00647568655412997,0.00438099611457817,-0.0776696939378689,0.0348480881739199,-0.00423894713231878,-0.0209459560180223,0.00335175473008742,-0.0352831325016846,0.0224626968880183,0.0355783194906702,0.00251204556861362,0.011077898529096,0.0341795760298983,-0.0206531558907652],[-0.0451813493207716,0.00210988197934426,0.06673950453068,0.0798622405116815,-0.00243743828573767,0.0380138034432997,-0.0523989379664646,-0.022994389134881,0.0430431807142654,-0.0146857444477506,0.00355746373246238,-0.0489609642704521,-0.0304223801993172,-0.00978667733510924,0.0169820590712936,0.0197614480817824,-0.0162814439512489,0.0432382688768042,-0.0460590687592378,0.00259983595190192,-0.0616902156014843,-0.0345135036927369,-0.00964330972192212,-0.0531973101374594,0.0198944424000069,-0.0280807651719287,0.0474957380705691,-0.0346249994578078,0.0334854415638662,-0.0301438661234031,-0.0654006551956747,-0.0225882181688779,0.0112374044995093,0.0350260102478729,0.0282681021235325,-0.0201870611868837,-0.0185455169418217,0.0167718220651872,0.0188804440117443,0.00337113327333429,-0.0585472334727978,-0.0502843803721992,-0.0264100641592974,0.000747350233249382,0.0171323534605578,0.010112596811856,0.026783890196377,0.0224619050321135,-0.046393706640494,-0.0109411714196461,-0.023192148928665,0.0148135696443647,0.0105206980532852,0.000567501766247918,-0.0211730746372913,-0.0265573968917459,0.0361094049812477,0.093599655899076,-0.0229502087977072,-0.0305594048300667,0.0100513511888151,0.0242721020209673,-0.0246856967858333,-0.0081500050122055,-0.017940083678638,-0.0299770901111907,-0.0436808625164187,0.00367532395716256,-0.0261757281913816,0.000405076062493924,-0.0613137139820159,-0.00915947794418607,0.00697781363527143,-0.0308880639250329,-0.00250187972576879,-0.0348374951205572,-0.0084688865159772,0.0297111493101312,0.0251925467779177,-0.0298329949114565,0.0161701032190674,-0.0567314253508216,-0.0249078104601678,0.0208009485643391,0.00945187520433881,-0.0285204837198357,-0.00871638426550161,-0.0151294371845608,-0.035879060680904,0.00925694715570252,0.00816589342088369,0.00136070323735853,-0.0534157976974402,-0.00928940570998585,0.0492863764136775,0.00434059948439543,0.0221110471879455,0.0293587311475505,-0.0110553056352449,0.0841939077438976],[0.0466899677237793,-0.0398792595195985,0.0507633566931528,0.0168383178802896,0.0980964318824834,-0.00128928307048228,0.0148763974015269,0.0941952012190299,-0.0473591271021222,-0.00262533405216324,-0.00104452173221177,-0.05701402098429,0.0575321761640278,-0.0320946319037842,-0.0151917103733786,0.00807229422003118,-0.0554040886747039,-0.00542300439806668,-0.0143947671961871,-0.0484822874572581,0.0533594942249293,0.0172404605241836,0.0472701379905408,0.0117265851493023,-0.051743413247172,0.0138294196081625,-0.0706159961381836,0.0603081153168209,-0.0232818427806964,0.00376712697814078,0.0311736686566722,-0.016364426314852,-0.0553715583874434,-0.0334374444134758,-0.0183065323124071,-0.0144118755074234,0.0405848188738755,-0.0257952572029538,-0.0532915402791314,0.0966059315741553,-0.0551417005108517,0.00783613241339243,0.0399645133202956,0.0123109511435064,0.00388225902137861,0.0342484973230562,-0.014139090082349,-0.0494048199963133,-0.0773006344499086,-0.0243942673899722,0.0206521464523922,-0.000825890780459577,0.00588942337163171,0.0614612461566928,0.00483535952933338,-0.0817036161514093,-0.0124470611918598,0.0153907064196837,0.0173944032886663,0.0346307392544912,-0.00708288225587031,0.0268217214729709,-0.0254641668083595,-0.019922793564165,-0.0447930082766661,-0.0326120395473443,-0.0247980021965864,0.0800498524094813,0.0161521086902916,0.00852250979722704,0.0264092771216519,0.030108930355909,0.00113458974137451,0.0565354023683406,0.0250596966213569,0.0257439281552548,-0.0255512427134197,0.107162689118591,-0.0161846021109864,-0.0248192781814487,0.0274342196314763,-0.060083425093383,0.00689945527863505,0.0196661282127144,0.0220616512748601,0.0304685838631847,0.0125261234809039,0.00224570673566169,-0.0124527397300524,-0.0564657472125433,0.0557685621455097,0.0443621420499113,0.00433324429449447,0.0127256899000265,0.0626868109195549,0.00592987619194249,0.0313336606574371,0.0942039674516938,0.0366568100112958,-0.053488751523332],[-0.0382496732283581,0.00876795994492071,-0.0961012948069743,-0.0508766876895894,0.0191130814257639,0.024366227510778,0.0213075719627962,-0.0716353702380532,0.0858937445447692,-0.00908183132395904,-0.000178910819317228,-0.113487454830548,-0.0519116020650232,-0.0555648485060865,0.0102517754602216,0.0511403249164133,-0.00677561059551965,-0.0204391760853494,-0.0207633125455705,0.00266419075550502,0.0380264870633475,-0.0197761367990193,-0.0112803751603671,-0.00404227597296575,0.028499958156036,-0.00707173656526387,0.0022396075526969,-0.0298165014909311,-0.0174260081135277,-0.00781355332182354,0.00648562868772866,0.0391198268644678,-0.00441488458724025,0.00377488652020639,-0.0296122060069397,0.0380170012920811,-0.0322808455823832,-0.00750243007576833,-0.00620737994301779,-0.0429555893624206,-0.0543629365013351,-0.00274901357975472,0.0260903838301729,0.0438517690177332,-0.00585525099030136,-0.0448105289252839,0.000712345794009299,0.00533562896274794,0.0096549256625334,-0.018136650137808,-0.00815476473860052,0.0356029002433412,-0.0492381067185989,0.0220268560449118,0.0279046828775416,0.0157089848115166,-0.0158316536849075,0.0143299785587206,0.00516648458162115,-0.0272633229114622,0.0500206215772302,0.00224945893337624,0.0535090691733656,-0.0167047022000066,0.0774838215420835,0.060853807806296,0.0174551940577143,-0.0768900889919303,0.0315702948402135,0.00684752202492508,0.0340584789661749,-0.0231001248820885,-0.0338930834126029,0.0727544869816469,0.00123535718708061,-0.0283547188409849,-0.0329982835596041,-0.0133990854023621,0.0013892840372361,-0.0632843199847314,0.00287842829677282,-0.0364853643298153,-0.00275735127087916,0.00983418602832763,0.0196805803425515,0.00535270100990339,0.0165780365198759,-0.0642400523434155,0.0312490683025738,-0.000151298729634191,0.0740540416420491,-0.0314370208270024,-0.046614916620356,0.00711081434215775,-0.00669943242671171,0.0310361427902804,0.0163999549685241,0.0226728812177559,0.0609808441741271,-0.0551312401051156],[0.0676996756266082,-0.00626140575732155,-0.0267559674445306,0.00710289177552356,-0.068802649137885,0.0132225382918999,-0.0794170566664322,-0.0337491524280254,0.0623566992156414,-0.0465883376645842,-0.0340297766632448,-0.0153909521278876,-0.00845824782114164,0.01051200582686,0.0318730951626385,-0.0456323060755167,-0.0558473612613291,0.0228892302915732,0.0408642522381301,0.0112749626835571,0.0186387772924999,0.00908583031594995,0.0137808254716066,-0.0225422393206191,0.0543563726401316,-0.0363772456159562,-0.0178281403438681,-0.0346989263520268,0.0349337760160842,0.00754355562095008,0.07720286846256,0.00890030122445869,-0.0164061982958367,0.0420374539375329,0.0141534025454115,-0.0167085617092147,-0.0184364008013875,-0.0345410035103655,-0.0360846782594206,0.00564185720279177,-0.0165553113139952,-0.0596075194106721,-0.0273819714218182,-0.000764251292141147,-0.0111325262486471,0.0146367758282912,-0.0653616631914553,0.017868899612065,0.0595634852836645,-0.0603452093592268,-0.0216528232193896,0.0542879960877468,-0.0103704035545922,0.0448904844094579,0.0206277983587055,-0.0333971726325171,-0.0303042244902388,-0.0120948420883925,-0.0206184698851681,0.0204795665394953,-0.0484660186726164,0.04643016096944,-0.0716632723972779,0.00309087581673326,0.00480321949354876,-0.0146117885053969,0.0286650381934613,0.00804710280032502,0.0273208626393567,0.0099863519704422,-0.0395748463877219,-0.0320548863662001,0.0664705233461396,0.0161994727551819,-0.0459147715424561,-0.0517588303000978,-0.0337418502837644,-0.0398170816098674,-0.00227729830501045,-0.00022910023323248,0.045417974538952,0.0192155603212004,-0.0215629419484675,-0.00370411711451115,0.00754311821053298,0.0448910957551371,0.0203452287481359,0.0269368203673162,-0.0239014440551431,-0.0119317634267147,0.00656326568229044,-0.00754202653855718,-0.0359732794998718,-0.0621539679752306,-0.0664966419301822,0.0154460159395101,0.00857719766150906,-0.00993649917445296,0.0135517591568979,0.0307006162334238],[0.0447727777010051,0.0160212270854924,-0.0764823073170535,-0.0207339855194817,-0.0293380470678779,-0.063919409965424,0.0960470316158911,-0.060432919571065,0.00462769156786328,-0.00779819626309291,-0.0431228478078463,-0.00889119990308281,0.00332086626978037,0.000877570539794029,0.0250912909051121,-0.0157925277907053,0.0021093281171872,0.00802708072565588,-0.0103317847914443,0.0275896394134259,-0.00495744942157299,-0.0112796920147257,0.0322539370002812,-0.0187359058494372,-0.0483755697340879,-0.0211418360476156,0.00344141359296987,-0.0410179344788607,-0.000120072662737933,-0.0414721566591115,-0.0115006532259663,-0.00465161609207296,-0.0537517974207366,-0.0036147169142577,-0.0536810372611884,-0.0410823220028758,0.0132177615753664,0.0299149444763391,0.0265152768034233,-0.0245670286725168,0.01756250038164,-0.0057773394514182,0.0181294560211855,-0.034367422881772,0.0160983442334254,0.0247203599811908,-0.0637545632422923,0.0271362572392071,-0.0452456921327219,-0.0163350702747207,0.00799714957310605,-0.0103955323445667,-0.00547674337640767,-0.0280385924467825,0.0237912573122919,-0.00472071189370225,0.0408849171020501,-0.00584160492904172,0.0121812602406113,0.00638110008447554,-0.0329960884857503,0.0314240682601773,-0.0824995785607852,-0.0613132051760562,0.0068928328084961,0.0208132235706288,-0.070059279258629,-0.0480874373676836,-0.00120407378945739,-0.00184106461073838,0.0145479121406659,0.00857255754544735,0.0111981809134462,-8.75894486385999e-05,-0.054366183020626,0.0349246428424185,-0.0383868638680724,-0.0153746818532516,0.0273471299346422,0.0294858383816639,0.000127487867890852,0.0150612509201055,-0.0434233734779924,0.0039604589484678,-0.0299708472131368,0.00693314363922428,0.0164650767594324,-0.0687408391028407,0.0168347171995145,-0.00712250117180176,-0.0500340352841494,0.0097937147552235,0.0285496589027496,0.00696473290070882,-0.0576386197109656,0.0276810298165504,-0.0352529030882362,-0.0264571182688461,0.00706225850193344,-0.0153687058866118],[0.0177580757512243,0.0166423692730529,-0.0288729022873111,-0.0658358949512721,0.0204891882237141,-0.032969961586776,-0.00461652706566132,-0.0124010101201061,0.0113542708932736,0.0431238677691011,-0.0400646819161903,-0.0152730106045058,-0.0720699874964196,-0.0381397691598443,0.0158129303310708,-0.0132388271158749,0.0124574372962828,-0.000677700190356351,-0.0341477142957618,-0.0063560922699046,-0.0474039383708115,-0.0103803456507407,0.0447018480142176,0.01709624478668,-0.0650338831018762,-0.0213545636676816,-0.0183371105403137,-0.068299549755581,0.0150259893584249,-0.00710883475003345,-0.00368841046204904,0.0560204463918461,-0.0351982864928697,-0.0084639267821289,-0.00750169394815448,0.0737734527028612,0.00999323537408533,0.0187189654359036,-0.0196841480420901,-0.00710528970662933,0.0102626995114328,0.0173095865305058,-0.00722418741271671,0.0435077618529225,0.0139498471569572,0.0361121450175207,-0.0167784393347662,0.001091879270428,-0.0238125741482459,-0.0613132352026471,0.0517470819710081,-0.000214255039804488,-0.0105885040302341,-0.00994163283261435,0.000595810929007812,0.00955079136718073,-0.00229432271942488,-0.0210796191837403,0.0202264970331518,-0.0579989454565484,-0.00882986102253767,-0.0367935322835332,-0.0386131239146892,-0.0375079449148682,-0.0115421027434188,-0.016476086758492,-0.0286445103534745,-0.0331038808349853,-0.0567491238898503,0.00834931236447235,0.0395591311587362,0.0470456588403569,0.0534971895638785,0.00857476370054483,-0.0523964519475157,-0.0192555457843213,0.0330002670974171,-0.0264668318876771,-0.0067434567994822,0.0155374158277307,0.0734339642890082,0.0505950330407393,0.033326315667052,0.0375180540248184,-0.0378485641248273,0.0347975259449114,0.00509974248589985,0.0487085262724432,0.070448736993779,-0.104543109471865,-0.014768433554118,-0.0112830291495451,-0.0251000195749985,0.00791166384017388,0.00129168994040413,-0.01003240001956,0.0165443483125832,-0.00227154337664459,-0.0311230004779783,0.0886196383319416],[0.0331937572744218,-0.041354580748864,-0.0278343441066081,-0.00552732733637832,0.0415179495890558,-0.0174360110327212,-0.0269714538448949,-0.0303299612097108,0.0356744565502879,-0.00527555835720247,-0.00481253451787206,-0.0242820625123017,0.0321177189131543,-0.0754579294324013,0.0137075162397136,-0.0322768368626854,-0.0468964936587667,0.0037454744097901,-0.0363704901274653,0.0329638784390668,0.00127360382863441,0.0204318799836771,-0.0170061076841403,0.0133847844290769,0.0292238954969187,-0.0370714079636666,0.0246566336763548,0.0724494624636108,-0.0137975634924734,-0.0699704371233241,-0.0537863046090215,0.0382314643241763,-0.00340398091017042,0.0273690802095192,0.0323076335351449,-0.00871229868786175,-0.0124907189263342,0.0243017404499859,0.0223053963225971,-0.00850010112554121,0.0103467646683488,0.0145091190308458,0.0176592924913832,-0.00178331482947787,0.00428193307476842,0.0108002816348025,-0.0179334881587876,-0.00429338742401564,0.0489085161635718,-0.0161549583913928,0.00725449373636222,0.0252430059328733,0.00948831459581149,0.0393738769857571,-0.0217662076303619,0.0310060501104738,0.0304861912667424,0.0545467115378074,-0.0117118176282785,0.0308604699424223,-0.00284940511205896,0.0313811097372157,-0.0167790724180982,-0.0306704501354591,0.00979303382153778,0.00192657870242531,-0.00545402273392268,-0.0549549395843962,0.0996692643503565,-0.0121520041652049,0.0276231977318921,-0.0633093672209958,-0.0242993803771081,-0.0673899670431327,-0.00366089828298726,0.100522871640112,-0.050296101955544,0.0206757648540967,-0.00141336009463437,-0.0244586689555164,0.0294101870039223,-0.0103952214840712,-0.0289537167558314,-0.00470019537353003,-0.00864972273035459,0.0744029511831466,-0.00403195479762964,0.0913639099484065,-0.0457287551354253,-0.0608519296582698,-0.0297972122346543,-0.0100903609912918,0.0461308975765687,-0.0479413077174378,0.00201240038217066,-0.0447366384866746,-0.0402844037485061,0.0393796990579252,0.0065022273171216,-0.0217691214785868],[-0.00304474314492808,-0.00419477681208128,-0.0299651365602919,0.0572286191947,-0.052652633429009,0.0273584855670652,0.0202624948644218,-0.00415715052713391,-0.032135590507739,-0.010524947656504,-1.74021311396156e-05,-0.0340738800802387,-0.0229106286954432,0.0293941312218465,-0.0022295385053557,0.0339603983008264,-0.0607754141224624,0.0232332142220888,-0.00565778183368653,0.0497562499387517,0.0144804267449027,-0.0446865367975427,0.0241558262169666,0.00178505919466785,0.00342088926102735,-0.00180322462761251,0.002841259104333,0.0341272147289867,0.0388176341409028,0.0148754751100956,0.0145393012787104,0.0152474475040489,0.0104914197694085,-0.0188713883470188,-0.0226078256743394,0.0397643331735589,-0.0555949057936168,0.0317400861416159,0.00846472259684958,-0.0238987315612123,-0.0313284397724195,0.0899115071389745,0.000218682007812236,0.012802604669398,0.00088453712590726,-0.0168170692605329,0.0205252620140234,-0.0393443861643725,0.0423929327430466,-0.0340003719862057,0.00631800000096508,0.0258047052920299,-0.0231389592339738,0.011218934764577,-0.0261964162013211,-0.0306706040769086,0.00356381186609402,-0.0379634600668518,0.0166191931227699,0.0246039021222821,-0.022063449280616,-0.00155761044862497,-0.0122186505510087,-0.048764341713655,-0.048525820757978,-0.0550030761101376,0.0218720352372244,-0.0321197723496447,-0.0301854883867035,0.0067194094630226,0.0381331769095547,0.0289654695067879,0.0525391094955634,-0.008130095870946,0.0261759165750559,-0.0587385187665774,-0.0103989270702455,0.0127137183609806,-0.00932234360912691,-0.0319677765042048,0.00699882201093981,0.0139312347398355,0.0238415260490987,0.014917611235355,0.0093487989913122,-0.0109526557578108,-0.00164495477551602,-0.0244963017109236,-0.031854150721217,-0.0298600753865235,0.0100000825066879,-0.00179161742634243,0.0147937848187577,-0.0316699381396972,0.0386290601617518,0.0789554068597716,0.0465600218667299,0.0350845425844672,0.0735085773269555,0.0388474911195407],[-0.0142937024929567,0.0252819775862942,-0.0133559652821611,-0.0611686278069552,0.0129850614568449,-0.0230489267174924,0.0135664437020881,-0.0263787037186423,-0.0205117829218723,0.0132324504317856,-0.0188234121582353,-0.00821202095025275,-0.0236666176752079,0.0208324617323091,-0.021691456020571,-0.0493579929105901,0.0680931955131022,0.0278779541771932,0.0180214836641565,-0.0499835743137309,-0.0287518566863048,0.0340690713165158,-0.00414714365186171,-0.0480478784692522,0.0141446475045145,0.0143006903478543,-0.0524276520225043,-0.0207298534000508,0.0236228002003695,-0.00110746584362619,-0.00805176576545935,-0.0368370337201816,-0.0499743419535913,-0.0135789448706891,0.0185165120642327,-0.00783325332366938,-0.0199979429529275,0.0139732370589493,-0.0147860935000159,0.0506426326099873,0.0588039626472738,0.0436502724735822,0.000405297970146093,-0.0436841488723049,-0.0338042866804697,0.0183859256437274,-0.0621986363988234,0.0104141346794797,0.00445391724442593,-0.0736317689173548,0.0328194538631812,-0.0339769208318274,-0.0213428178354318,0.0518602337787441,0.0148827872219582,-0.0186943101456952,-0.0188386479246677,-0.0128683483449203,-0.0172699556757219,0.0926679590977869,0.0363470892614237,0.0413630962159982,0.022618557358937,0.0198462838270011,-0.044018622663391,-0.0148942798790642,0.038658464292886,0.0234504811515504,-0.00315839926990644,0.00861891052724974,0.00375113312083205,0.0186281312208685,0.0145087978081801,0.0349465148612181,0.035507184123574,0.0270244605867597,0.0281293122023019,-0.00246629321987097,-0.0645020196476951,0.0003811562981056,0.0537604531587369,-0.0327235856947617,-0.0537755273806036,0.000796600936215304,-0.0243382523567964,0.0231354849062595,0.021184499625502,0.0180616147154312,0.0297840792851257,-0.0341371185048246,-0.00291643487517161,0.052840935884985,-0.0221131775757445,0.00344309153370706,0.0412940205909122,0.0257413735571668,0.00800921758701533,0.0370085070327763,0.0369192966274318,0.0121446151097264],[0.0350077362110849,-0.0424466489599528,0.0187849169055095,0.0264716670663054,0.0197883536577867,0.0646625343848616,0.0237709063923268,0.031478760587094,0.00986128587065904,-0.00606844346588293,0.0162180566499737,-0.00578025333430966,-0.00784849463795234,-0.00904554780713292,-0.0013321355767875,-0.0213318832591176,-0.0273469865337331,0.00681435053530395,0.0150305250499282,-0.0334928738886433,-0.0396556364201542,-0.0344819509114464,0.00785572244415468,-0.0245059648783116,-0.0296254093719548,-0.0399761917306237,-0.0803662300338388,0.0296422579285328,-0.00193876115003194,0.0160963501776084,0.0197982467112224,0.0126629195046599,-0.00163597440067416,-0.00140408970160769,-0.0228832622395966,-0.0325742799652248,-0.0382092341875678,-0.0252024659600619,0.0222328671950289,0.0131440268768337,-0.0723440273337909,-0.0616205139881143,0.0369775510541915,0.00355947024663867,-0.0359348244132371,-0.00886273642966798,-0.00898184612361089,0.0143737792148587,-0.00152038964379847,-0.0132948363779677,-0.0193107335293931,-0.0370857927544866,0.042101681759086,0.00238534415237757,-0.00481529795198342,0.0168155349856601,-0.0197010067087023,-0.00780728818562857,-0.00189352800737877,0.0484925153839799,0.017645030128438,0.0351461683816656,0.0226489766517735,-0.0353314107221785,-0.0041029881930676,0.00771884702143924,-0.0207614631074678,0.0394885374992249,0.0277606392499699,0.037401644184612,-0.0293594138846802,-0.0772340230833006,-0.0372436116179131,0.0215016292470744,-0.0336362138207615,-0.00334099337817811,0.000863350525985196,0.0156740576373263,0.030762723490174,0.0366259124632569,0.0295782426152105,0.0603855692981169,-0.00576976546548445,0.00183233266677926,-0.0100471852129422,-0.0167571599447042,0.0528653304884819,0.000223119503523227,-0.0187677830430943,-0.0359277153762939,-0.0744399844096923,-0.00104974645952603,-0.00904060930099265,-0.0643468042259716,0.0089737753544049,0.00827232303452429,-0.0494769290385453,-0.0166236769065853,0.0255349610873197,-0.0587273707095347],[0.0183585448405686,-0.0294704970058738,-0.0514286655672852,0.0277777010763251,-0.0693945045195157,0.0151481653093347,0.0247918402265848,0.00748761183610963,0.0201431135764694,0.00822327600571967,0.0115085790114415,0.0191992577093244,-0.0501519812923205,0.0232829660582445,-0.00837551642234173,-0.0220169310694045,0.0498394310359723,0.0132439858300102,-0.00821420588771489,-0.00319715876052267,0.0146057622347279,0.020228508580147,0.0534474535120688,-0.0329873509982519,0.0125479815993364,-0.074769747990938,-0.0141875874460954,-0.0207503844410301,-0.0198482657725722,-0.0525444581899375,0.0393589217377928,-0.0404824062084926,0.0252235881308565,0.0212303696536807,0.0179166983052873,0.0266618009860842,0.0278172193376093,0.00239642648389745,0.0446895727247538,0.0727618140028096,-0.00382156326198398,0.0138294234868535,0.0306395716774424,0.0205142349646144,0.0208853750728011,-0.0107131040980473,-0.0580424423642991,0.0226413967740239,-0.00216526366077436,-0.0438011187062955,-0.0421839733591596,0.0464279340312931,-0.0413924575383389,0.00274455328083733,0.0376335565220833,-0.0539668592318338,-0.015952916165466,-0.014226100863233,-0.0032087972890603,-0.0207145050350686,-0.00646654206392893,0.00801664037633364,0.0102653972692392,0.0120189981148744,-0.000252400698817815,-0.0325620086724559,0.00480345113054543,-0.00804238714092782,-0.0360808047904795,-0.0200667628909167,-0.00684548383272804,-0.0322320995224158,-0.0296308365410517,-0.0073765163656267,-0.0071504381883424,-0.0532513821295349,0.00060326687640989,0.0161523059456765,-0.082292276502676,-0.0222148217456474,0.0315791560449837,-0.00594234330315771,0.0319335586363043,-0.0470703307087278,0.015135221844648,-0.0146823191910119,-0.00634691874830898,0.0261470138539697,-0.0123589670168573,-0.00825121140808257,0.00373917008898418,0.0197967442662131,-0.0210828303295154,-0.0528191473080425,-0.0550437390853389,-0.0238506933538308,0.0671982218980797,-0.0384294417420201,-0.0063781855475139,-0.0363820663388275],[-0.0510857860342684,-0.0633116946613757,-0.026539606524262,0.0133712646755437,-0.0376346543252117,-0.0459943723733785,0.0125056383312739,0.0728368904516791,0.00867832524896679,0.0486018399097464,-0.0203775025856369,0.0114926501061123,-0.0139303023649205,-0.0177840247487341,0.0474309236529008,-0.0223235757170973,-0.0841089136720899,0.014396944341718,0.0310490343597693,0.00752830828581303,-0.00306777260693746,0.0180106688714157,0.0270223630297804,-0.023795659111879,0.00354661322807121,-0.0242086864786406,-0.00594657916234194,0.0232975662796547,0.0158301148360741,-0.00012374592477184,0.0350128647631467,-0.0208397512409005,-0.0221711053749121,0.0260815831301874,0.0584398041487372,0.0225915238361082,0.102112926231277,0.0485188955510361,-0.0292001302647939,-0.0183549510805466,0.0415950832606684,-0.019843099668384,-0.00493677135734539,-0.0091856171210145,-0.0148564043489312,-0.0661842262999899,-0.0622327479543357,-0.00178821969229494,-0.029248601051071,0.00395006877250595,0.00887220522189355,-0.00901982258873643,-0.0167792382378937,0.0446532347481476,0.0158824468417025,-0.00322421835711841,-0.0157852403868628,0.00396784063380916,0.0128303464900133,0.0417279356857289,-0.00171967693296022,-0.0421891793389405,-0.0325459167058983,0.0323269380459617,-0.0190803037322568,-0.0597631311318485,-0.0191162751180381,0.0241458867619847,0.00759172742430554,0.0321947156232674,-0.0324001388384994,-0.0643022463071581,0.0412368832645653,-0.0205997163488081,-0.0152624944159191,0.0281239149062784,-0.011380659819522,0.0320514436005045,-0.00174424533829699,-0.00713581406419172,-0.0110623787367587,0.0849515796592467,0.0375240774164331,0.0315223207453872,0.0230323655940042,-0.0472922403430312,0.0266951767937615,0.0593902525281461,-0.051192320485546,-0.0281459916910728,-0.0164551400089607,-0.00462068112551397,-0.0356889311462999,-0.0304224937248542,0.0209109191803149,0.0402926226528125,-0.100146682323392,-0.0373777569204514,0.00473574412714198,0.00315850317278454],[-0.0696483415674553,-0.0213513982869588,-0.000942715231287004,-0.0276701106593284,-0.0908167392603434,-0.00636647214614249,0.0472766723905068,-0.0243876670560068,-0.0384340086600791,-0.0174648247431944,-0.0120097949396087,-0.0224371523559577,0.0217545591315481,-0.0289980977589143,0.0116595666192603,-0.0291065220460592,-0.0823747862115752,-0.0275692910588246,0.0126783942243869,-0.000420803640726962,0.0373487122672343,-0.00169217408420939,-0.0250848146840798,-0.0098338476844099,-0.0315541298508189,-0.0130321136822889,-0.00177760469997909,0.0269824380926572,0.0152719957324276,0.00605446594512655,-0.0371304902772044,0.0105342990898578,0.0114198339842998,0.000360385284997511,0.0266396363969627,0.0333529901870074,0.0672121391362093,-0.0518625676987388,0.0272079400755883,0.00645342783352932,0.0159371990047605,0.034546046347276,0.0140917845253914,0.0374699821728261,-0.0471920844806995,0.00277609371203382,-0.0580310385053155,0.00258069084414723,7.47367426753661e-05,-0.0174690870794413,-0.0433253193752086,-0.0648340032435217,0.0152098153577143,0.0804749482041981,-0.0705168058866395,0.0437996796247428,-0.0387941413909727,-0.0466312129069874,0.041353758368547,-0.0465785530365632,0.0147563769832468,-0.0451859512189156,-0.039450020066574,0.00414372386777509,-0.00640847897116652,0.0246711276165668,-0.0246331845814714,0.0193319051811497,-0.0141503786014796,-0.0364092068864916,-0.00951666019619817,0.00470626441473631,-0.0440668690099181,0.0451943362879192,-0.0312646886844762,-0.0112197567589522,-0.038030140714744,0.024888671727067,-0.0136679295885422,0.0229386276855258,0.02715988283082,-0.0473643591156069,-0.0598716174324597,0.0382093328034222,-0.0205534504725455,-0.0349604052973695,-0.0356444729202351,-0.0166733093568519,0.00156786149518479,-0.01384105468024,0.0103920809528569,0.0251908843015599,0.023146039891474,-0.020427090002022,-0.000965172459902105,0.0715679483795981,0.0170193060614846,0.0496591469449341,0.0223030873309289,0.0257817806181341],[-0.0434881943509574,0.0403507633050823,0.00607255197859479,0.0227251346321204,0.0635984021029987,0.0282524525520439,-0.00659821850154338,-0.0217945050168175,0.0159107024684267,0.0469812904205872,-0.0389850054021099,-0.0763188444447413,0.0180260715883177,-0.0335021500687227,0.061914190998765,0.0239996825273846,-0.0382358890366329,0.0036880804711352,-0.0211158027566985,-0.00719134685584983,0.0242439483184504,0.0147240769706928,-0.0260596612423657,0.0337815266335164,0.0105596861749427,0.0271472593519893,-0.00175322965605144,0.0274860663656992,-0.0408203278366263,-0.0434580519417346,0.0259842874233642,0.0475683102658586,-0.019513561017474,0.0374540013477641,-0.0309820879193613,-0.0206308230154247,0.00139833968911185,0.0160611576783383,0.0212469925495333,-0.012291795089907,-0.0244578326348721,-0.010587519458117,-0.0785196655818641,0.0489818759034391,-0.000241556408450617,0.0428126112478157,-0.0534889786496547,0.0182991582431052,0.00504700922673189,-0.0246385158639019,0.00107123942187643,-0.00254523497093847,-0.0656482956394878,-0.000659626280324185,0.0292353112723204,0.0349362046277718,0.0440702380030108,-0.0278021004842397,-0.0110958342341478,0.0339442624170424,0.0116779009941011,0.0185747092213589,-0.0394913189461813,-0.0431417216214383,0.0234946680843609,0.0305600653600388,-0.0359952429615933,0.055044027130309,0.0372549831254187,0.0214243134567336,-0.00116111764641055,0.0028887621483802,-0.00902626429774042,-0.0237258342077463,-0.0520230009099758,0.0160947306366345,-0.0437131060848862,-0.0361140857211526,-0.0470730766134911,0.086978593172354,0.0151930236316394,-0.0162407752006412,-0.0613959554368574,0.0175802459732123,0.0197593033709856,-0.02162555155564,-0.0677253411771904,-0.0190124018641393,0.0174114476310814,-0.00980198638760274,0.00632724198667851,-0.0144867266945935,0.0183758648430834,-0.0149612113989663,0.0400232329975756,0.0551582617075546,-0.0371722068868975,-0.0441101642211381,-0.0117426361380115,-0.0359724568197481],[0.0248464780797083,0.00319052613960709,0.000906191053206511,0.0524020251509958,-0.0161789720760043,0.00982444501670958,0.00333324319129845,-0.0630627914807968,0.0114101593057679,-0.00142036337722483,0.0133629531556398,-0.00957790820307572,-0.0344393945851707,-0.0134609609087001,-0.0883188300379338,0.00198406867064295,0.010122488181275,0.0109601849431816,-0.0144624692862533,-0.02042598215862,0.00679273494054373,-0.0312802952675732,0.0231689423072245,0.0495519997814656,-0.0558452573354753,0.0284743073608248,-0.0152502407638688,0.0199231256760475,0.008529104579938,-0.0068045338593306,-0.0161527263790387,-0.00617156623597762,0.0497983294659895,0.0225982409099892,0.0300102245110653,-0.00820479988349998,0.0465210987053844,0.0217589952648088,-0.0105296733138319,-0.0573150308193004,-0.049565676465244,0.012011542456013,-0.0360565192113548,-0.060618260045397,-0.0606881784493553,0.00138231190238303,-0.0705459621050161,-0.0337317416981193,-0.00187234857694747,0.0780718053848874,-0.0470932691747937,0.0106630740706732,-0.0474043335467713,-0.0458309009849843,0.0293653690274488,0.0063981544624535,0.0099068809719585,-0.0541484630775531,-0.0230581627092299,0.00975219017981584,-0.0266936239075576,0.0300048106419354,-0.0841320332096016,0.0351919175654122,0.0236228359078189,-0.0433139111439839,-0.0373902174538439,-0.0570789302667707,0.0430072031174996,-0.0247983553493559,0.0254119184297832,-0.0276833877719776,-0.0735396316185938,-0.0584075751655239,-0.0132785293996716,0.0444734471332323,0.0401266177462901,0.0464872938780047,0.0135067268893596,-0.028231883265194,-0.0581847794932537,-0.0211667798358735,0.0292734955596899,0.018686099923096,-0.0132295324189299,0.0517042636382822,-0.00844832852152149,-0.0193661697746545,-0.0327196757098752,-0.00068638553991126,0.0141442412309812,-0.0469775331020028,-0.0185430322511485,-0.013691140945486,0.00910967205043683,0.0392397700499307,0.00864545764789824,-0.0242351064664078,0.0138063461980826,0.0276436189615015],[-0.00664110720359978,0.0891280175033197,0.00141061721019193,0.0309252854820022,-0.00183293798297886,0.0461062901088143,-0.00737825121457475,-0.0411431397869685,-0.035142772767509,0.00943572505602199,0.0452267852288663,-0.0156918939930705,-0.0272987203006254,-0.00774155395681438,-0.0131167669485328,-0.0319405210651725,-0.010914236906662,-0.0413657163354179,-0.00654044642549263,0.0170242310367147,-0.0414369738346188,-0.0424739281357858,0.00336548388871845,0.00364520693703069,0.01770562385074,-0.0308671439576571,0.0336518596166403,-0.0117986296947555,0.0038821781889972,0.00866052645885413,0.0295476266072695,0.0857478997965433,0.0420082694512379,-0.000383873505103335,0.0032106734609571,-0.0138779506127311,-0.0555671297207249,-0.0478238337454385,-0.0446190872584303,0.0741145971583421,0.00118029506929117,-0.0226831664410518,0.020842218377296,-0.0300379950087371,-0.0679481823518947,0.0199014916698951,-0.0120699432954804,-0.0206610878319791,0.0728592298085307,-0.0418201928381332,-0.0196199012579342,-0.00273047122301096,0.04597902133318,-0.0503227020876375,-0.0759579362163864,0.0376299711627078,-0.0154784438255419,-0.0290829173321323,-0.000827597136965787,0.0124211134829367,-0.0258286362013222,0.0361376937319624,-0.0204557740452996,0.0495764762356757,-0.0561147956242577,-0.0269413303884171,-0.0186959531332039,-0.0226887697168067,-0.00156549540443385,0.0933612078733704,-0.0376864808964397,-0.0235114563162926,-0.05872900180208,0.0349270031854244,0.0598440050488456,0.0240250483157155,0.00709177408768766,0.011357356049228,0.0122625050671244,-0.0196425938686769,-0.00394592873157523,0.0267355154788691,-0.0574142160427651,-0.0172804738831774,-0.00239156607038208,0.0335508728690419,0.0109057968119888,-0.0156624585726442,0.00730206111114354,0.0212953125155373,-0.0319103457466923,-0.0206192018104748,-0.0137909027576409,-0.0127706467126173,0.00514120234979909,0.0340507743833691,-0.00199067641348679,0.0353196559168769,0.0172384688347907,0.00611747921326715],[-0.00714609728394465,-0.0586470721127655,-0.0446512994750325,0.0277744354640782,-0.0736691365247295,0.0151089634532923,0.0569151173673409,-0.0894575428551098,0.015703394597164,-0.0482172992049356,0.0262990348114901,0.00556423109101732,-0.0105359678142825,-0.0011664469949554,-0.0177638021038405,0.0266154861956706,-0.0605478316359676,0.0382015301402034,0.0162089026521772,0.0241894750927524,0.0144402841177082,0.00860106257783608,0.0867044824120174,-0.0186538937344266,0.00607472537012358,0.0198206805981326,-0.0380872608270985,-0.0218735061582516,-0.0335545317709731,-0.0161013947509032,-0.0306169255336895,-0.022460805897986,-0.000129832109444301,-0.00529777860864809,0.00657303048711987,-0.00276676106843348,0.0189717952787184,-0.00684921973085885,0.0377851154022815,0.0592290348318338,-0.0390608457541272,-0.0132166286370939,0.0342222182307919,-0.00628248989668235,-0.0479180213932913,-0.0361114485173481,0.0429067328096018,0.013101460797957,-0.0522509672641803,-0.0449174193461756,-0.0810378849278579,-0.0187250773106269,0.0345319816331201,-0.023899052776294,0.0538893478639208,-0.0239024596103326,0.0245492069150341,0.00704465763029349,-0.0736199440275862,0.0123221245848915,0.0624268445586966,0.0890606599756311,0.0256818583495463,-0.0403654785455757,0.0394029423993577,0.0542768886293505,-0.0287517941283004,0.00115911431295506,-0.0596897050910039,0.0151032725870418,-0.00440760232076933,0.00428615053212329,-0.0170066264709948,0.107394196801243,-0.00563252891828593,-0.0152136759750972,-0.0315959346550842,0.000683307038438775,-0.0234956934997591,-0.0192233934616501,-0.00593876272523398,-0.0303138250567584,0.0777476816791851,0.019477476277566,-0.0158112383486869,0.000170549187567164,-0.00757777131463406,0.0314149933522994,-0.0590626206753955,0.0350270742468451,0.0514559268189763,-0.0221276053363159,-0.00565381974252803,0.0204946874808197,-0.0365339340466968,0.00614064218926209,0.00213980907757509,0.0154491083447082,-0.0138136929533119,0.0123230287084876],[-0.0229216458335759,0.0486224765046481,0.0708888417068685,-0.0357018140322022,0.0765575139341627,-0.0245966821658057,0.0116441062445971,-0.0197360798563402,-0.0271665279512702,-0.0170973736289939,-0.0094219191019537,-0.0204719880399383,0.0190118332876556,0.0185471234316814,-0.0190746905002757,0.0138144361130857,0.0571705221306288,0.00481491462421323,-0.0232745458579392,0.035762167789479,0.037579237624955,0.0121395801748894,-0.0136560461968952,-0.0236283745350668,0.0212821132638193,0.0355598866514887,0.0401586933000414,0.000337676888018892,0.00379718706257493,0.0500441923688338,0.0235358495026235,0.0362647702410585,-0.0243494600740306,-0.021120483366962,-0.0610061921572006,-0.0042822838476924,0.0418596341740391,-0.0661621870682641,-0.020586826902303,0.0144111908856658,0.0412297908034531,-0.0529560727931349,-0.00790581555734891,-0.00164159218112958,0.0292319530563549,0.0112775315298286,0.00272907455406013,0.0812216846636327,0.0311253051377391,0.00791806097097204,-0.0925411862278459,0.0273921880663016,-0.0566313276872293,0.00119928566002955,0.0384748866963466,-0.041079081837958,-0.00427084505598989,0.03617438374624,-0.0186121573359513,0.0570807230563622,0.0217407730612552,0.0196587809940769,0.00886582837997438,-0.0125300844663374,0.0343509647115221,-0.0268863067187164,0.0194385045900508,-0.0364523383774566,0.000727827475111704,0.0346430509446176,-0.00364613139252345,0.00818555549804036,-0.0173190648878629,-0.0259243793519113,0.00251570478232522,-0.000474673517673708,0.0958464164095664,-0.0110995459166291,0.088500217115529,0.0223580491846596,-0.0307681192852228,-0.0646187701383613,-0.0292447341429805,0.0258815817092312,-0.0351435208502012,0.0130049207158769,0.0096786169988073,-0.0409291816311386,0.0562434929696363,0.0392304947126895,0.00858240045708903,-0.0362750722760543,-0.0543858005467975,0.0450484576332054,0.0223382655894913,-0.0111466660358648,-0.0645681945738404,-0.0357260433050056,0.0182550864918949,-0.0345498093256443],[0.0142425126542266,0.0364544333186854,0.0309973739525038,-0.0639392207727768,0.0199184291191426,0.052481612653573,0.0390947809084064,-0.0140326815988379,0.0496515056996273,0.0161190611684085,0.0317369074859109,-0.0350179577176184,0.0338957639496712,0.0195308389129342,0.0576242651557553,0.00995851952466206,-0.093832706251318,0.0495779994648691,-0.0376946639943651,-0.00654671079724883,0.0548394510020929,0.0576558207429869,-0.0157620223361479,-0.0176402237174054,0.00231283372177818,0.0454648137689664,0.000254805889915888,0.0364668639434853,-0.0314116485954576,0.0512828738010017,0.0582168779685211,0.0436516253873757,-0.00751796842211277,-0.0125586594808258,0.0603312128752323,0.0304647150707484,-0.0385464916163609,0.0112586877623128,0.0459975998327576,0.0494594010029331,0.00501938098185608,0.0342921326328872,0.0255685011508739,-0.0949623559840921,0.0403356152936529,-0.0346169336802103,-0.0325212133763773,0.0235227411138379,0.0552080546441659,0.0283444061125058,-0.0200953677685823,0.00595105916828191,-0.00440854514874507,0.040842646837522,0.00251677538436523,-0.0381748892260476,-0.0069148405454952,-0.0557958900586032,-0.0200503036099544,-0.00808757107665055,-0.00475718065382244,0.00615472714275364,0.0540439597792034,0.0047120560137638,-0.0400055782778222,-0.0137084331551457,0.0245037725643449,-0.030759740236947,-0.0169962109824571,0.015592691011138,0.0284218923815509,-0.00640056889439183,-0.000217533424343569,-0.00418501046709087,0.0414633473342131,-0.00287279723128213,0.0494314830715132,0.0575614203569313,0.0168649741514713,0.0031215446175188,0.0523729750612139,-0.00223580515793099,0.0521449074232792,0.071860485043306,-0.00137355129882106,-0.0497000840075919,-0.0395713828042657,-0.0153260221878159,-0.0308508518501915,0.0605122081480292,0.0220941370186094,-0.0123406983244862,0.0165459800545646,0.0163018248711789,-0.0405638531968813,-0.00377120665978633,0.0607168806935693,-0.034277234507651,-0.0423119271836927,0.0347705279667829],[-0.0441009573553743,0.00825754784142098,0.0162292908449054,0.00327433616884156,-0.0184562587091392,-0.0142355135784303,-0.0786609388829762,-0.0328801345302774,0.0253528258404751,0.00424342742909046,-0.0136534490374747,0.00507334184428968,-0.0737101526401291,0.0499186700355137,0.0551865882945015,-0.0370851636342439,0.021010884032425,0.0201895292452614,-0.0137749049299065,-0.0173867596344069,0.00816324008901602,-0.0506471436292214,0.0616458364997679,0.00527427694394697,0.0980555448700379,-0.0365979843234137,0.00641771791298696,0.0145114323527708,-0.0191458963051418,-0.05379133762324,0.0296494867822983,-0.00414341286805421,0.0319259821627224,0.0138958925088358,0.0134846727319071,-0.0465796704990304,-0.00613041852859745,-0.00560325737273317,0.0228964496535734,-0.00767791893642621,0.05861135480325,-0.0827703470784149,-0.0109739692161635,-0.00918624856788494,-0.0112434191430535,0.0113329728849858,0.0511793226906434,-0.0201998979003118,-0.0378955852821418,0.000137344544712578,-0.0168028016700867,-0.0730226204756064,0.0229956353538471,0.0453697961666263,-0.00322272421093214,-0.0132679506380187,0.00316153680420229,0.030011816466595,0.0418040378060028,0.00221094151384299,0.0461170007400924,0.0308611678834042,-0.0244421188152461,-0.0113996378747004,-0.018476144230262,-0.0168251890732213,-0.0231725577519112,0.0256037102288139,0.0280683358398363,-0.00401130249781601,0.015878915351225,-0.0568346664656531,0.014544450036516,-0.0405387525838545,0.00969460111028004,-0.0176360558658037,-0.0391960380259666,0.00739455940695665,0.0177691952065054,-0.0293559638239226,0.00428671097954728,-0.0234147426914522,-0.00628008699111459,0.0423900961787942,0.0954104157930277,0.0355109446164487,-0.0312623743276967,-0.0170946622362388,-0.00711724851523833,0.0628628035481853,-0.0275574833393585,0.0262959752731005,0.00109037834586929,0.0152504360014503,0.0253290599116091,-0.0387791314805379,0.0192932483325449,-0.040614999083809,0.0562029183689344,-0.0287050793566136],[-0.00161601396864623,0.0218585953195126,0.032575041456049,0.0102524439388074,0.0439980311632302,0.0209982836630011,-0.0154898195659896,0.0457406230018049,-0.00573245415991054,0.0194304277579873,0.00100662566679407,0.0381467909583812,0.00974771344342869,0.0180546043764225,-0.0606009556557247,0.024394250874458,-0.0148625732468635,-0.024856529313141,0.0255076892714682,0.00435083936654242,0.0331590700227157,-0.0573241013537591,0.00193469778460287,0.0685136794261659,-0.0991380223000463,-0.0138967007231783,0.0143906356779268,0.0125709428013808,-0.00615076865761464,-0.0231285781380821,0.0417836472225279,0.0120720548355233,0.0487042210267453,0.00616091714270153,-0.0118846879947099,-0.0552513414600838,0.0100728721249501,-0.0273752846485438,-0.0292322016405476,0.000913419102214149,-0.0508313691600258,-0.00256177100474478,0.000293723677638022,-0.0199361792158574,-0.0118332087657898,0.0160410345969678,-0.00492320714379952,-0.00366471072856197,0.0318853529197349,0.00464795859956384,0.0236136978378887,0.0199621630884349,0.0473113723057586,-0.0186972148008025,0.045538478891552,-0.0234084228153861,0.0382864602917541,0.0210354733823344,0.0367126971168278,-0.00756922234515094,-0.0194707145646701,-0.0421661145885697,0.0410972967800326,0.00255986185164605,0.0224855792646675,-0.0225121428634161,0.0293758495775693,0.0154161402850696,-0.0304350361559132,-0.0466837434741161,-0.0279829814118672,-0.0414171382543783,-0.021032950471897,0.0114456420133491,-0.0146251452561835,0.0488956436275398,-0.0145868379104192,0.0477970937111187,0.00250387980067112,-0.0292399750008693,0.00137224433990034,0.0343918004720174,0.0155545907639551,0.0249472216937999,-0.0276959685658016,-0.0139899904487542,-0.0153062511915022,0.0331213182995358,-0.0575915640802894,-0.0119612404519053,-0.00496172060218472,-0.0173341627462418,-0.0212505136331805,0.045043318692662,-0.0432176055280338,0.110372985699542,-0.00118817332904349,0.017797674033761,-0.0677281604951891,0.0614924106335374],[0.0228497949698505,-0.0132334725714442,0.00440846613567217,-0.0111789168747895,-0.0174545426355629,-0.0449862131965706,-0.09691027890003,-0.0508048712734491,-0.0123456663530507,-0.0305113212432897,-0.00844185953385021,0.00156426035931645,-0.0436618284181595,-0.0316259880113906,-0.0303066619559082,-0.0505712985398406,0.0047605090838383,-0.0386023611997952,-0.000935710664006354,0.0198446944349791,0.0331631421894085,0.036972177412983,-0.0196535979975256,0.0123546776603604,-0.0173877892837959,0.0536613893333958,-0.0529593189882984,-0.0160446047368851,-0.031704423455001,0.0126724687430251,0.030269003544192,-0.0344218625122336,0.0489553339892702,-0.00324519182986243,-0.0160933447708459,-0.000109348904544288,-0.0500824997017639,0.0430048123563701,0.0432064640768881,-0.00472920067550026,0.0118155225052555,0.0148159423234275,-0.0241277503509298,-0.0265351469957309,0.0093486103251199,-0.0278161110798358,-0.011214294638897,-0.029581708277402,0.0384599830813859,-0.0323539519624173,-0.0208943995199257,0.0099510980567295,-0.00942287918450462,0.0635102063871427,0.0311077386547241,0.0771988060431345,0.0263020474698334,-0.0192461769881214,-0.0325506664945011,-0.0427713500882994,-0.027474569757145,-0.00066889383709143,0.0195483300431882,0.00458132975218335,0.0408538953964536,0.0600928634488887,0.0217889684686755,0.0280237631588837,0.0110165305917914,0.00754535874802935,-0.00749482767513082,0.0205163265625786,0.035610134221651,0.0129210748519217,-0.0496331181227729,-0.0244996194793054,0.0222347210673194,-0.00683385444599066,-0.0600029883641183,-0.0833977239305014,-0.0692628760695542,0.000789873017872467,0.0863987201269117,-0.0237469195689143,-0.00671486038012876,-0.0111427884417157,-0.0164431948278353,-0.0269719952140307,0.0133574819153656,0.0165745518976165,0.00446420483176432,0.0568005289603961,0.00723458709386396,-0.0131399265356385,-0.024548033990906,-0.0208026118300911,0.0568998691543161,0.00505289173360587,0.0323139295182398,0.020618720185659],[0.0525594591453617,0.0516969770489897,-0.00659441824935302,0.0548592705654742,0.0315633018968348,0.0783448125637692,-0.0990175566401868,-0.0186015468652894,0.022467395837421,0.0237852337763175,-0.068342585375932,0.0330955835265905,-0.020440515193878,0.00376635601994763,-0.0486747179209958,-0.049041836780973,0.000349258362404463,-0.0626289906269725,-0.0415697619764177,0.0647696705558337,-0.0255285626176209,-0.0158474450792705,0.0426174601503904,-0.0225465657753334,-0.0133188941155027,-0.0294394093949894,-0.0141666805324394,-0.0219184750299527,0.0492993256407704,0.0192320371415788,-0.016517007328588,-0.0134489607965781,-0.00033899519315564,-0.00843679559836028,0.0163968073399731,-0.0366942014059351,0.00995633263089138,-0.0380897075894189,0.0328101104131271,-0.026131439475922,0.00190160038988462,-0.0313527416170777,0.0383520471258628,-0.00587492323069051,-0.0909284741977777,0.0316322767700282,0.0260639052453001,-0.00548355237947554,-0.0281893363004573,-0.0499842684155134,0.00043049768844215,0.0324443894643153,-0.0325666440607251,0.0265753268177967,0.024772023360572,-0.0144607058607966,0.00991233671402089,-0.00105096823519891,-0.0130514420891132,-0.0512349786361461,-0.00772011749048566,-0.0211964319994284,0.0674890649737329,0.017746987189516,-0.0152648645180247,0.0125062013277798,0.0132159029818595,0.0281270192008024,0.0189842411438431,-0.00247342890780128,-0.02502865302121,-0.0578268505523994,-0.0118345574329767,0.0403123829888967,-0.0359490740187123,0.061655534168343,-0.0519489780909124,0.0401222357069434,0.0527585275575607,-0.0113538760350168,-0.00903468815700508,0.0114696713105974,-0.0252395168176912,-0.0161407987361177,-0.00528276701942246,0.00388729869538055,-0.00746883582051517,-0.0445983902094639,0.021110118018248,-0.0176208277610244,-0.0302418588509866,0.00343952149669674,-0.0289481200029383,-0.0205614939790571,-0.0418455796608403,0.0339342733987469,-0.0737397373398285,0.0710552509056237,0.0312682677088382,0.0714720554546608],[-0.0568177897663366,0.00408816409824745,0.0059950653787379,-0.0444179301561221,0.012885090280933,-0.0221766708823284,-0.00962644594340979,-0.0378423188484586,0.0873475675189196,-0.0864159282533039,-0.0221040017363786,0.0626196188524149,-0.0194252296438318,0.0259574133115976,-0.0227889855950266,-0.0103643446760192,0.00421962243583645,-0.0150279883458976,-0.0879183646562418,0.044650168612916,-0.0701478588891704,0.00607517165314594,-0.0150453239640694,-0.0593395625833446,0.0111961531175133,0.00428310020744759,-0.00617861633839867,0.0249586083799783,0.0159104083793073,-0.00666159963518069,-0.00338326228417291,0.0193677285455982,0.00746717797295161,-0.0641471584068387,-0.0586886009137399,0.00150741748981173,0.00471707817313929,0.0270244213137798,-0.00433679125688706,-0.0202034489896009,-0.0275306611510792,0.0187379235638657,-0.024264589620741,0.0199021297926542,0.0467691924901724,-0.00141072808808648,0.00177757119801387,0.0157084691809729,-0.0258556269292489,-0.0629278180952426,0.037825655766031,0.0449518646206122,-0.000222604063574352,-0.0335880717027812,-0.00180286317281726,-0.0595626749962676,0.0246251104261939,-0.00539133131691759,-0.0124835336188165,-0.0729670257175289,0.0111776665139152,-0.0450850105990457,-0.0323939118744366,-0.0224311124690948,0.0124953074764762,-0.023830351542921,-0.00435481871636073,-0.0124686152315676,0.0224245381618871,0.0152633712307056,-0.00930016116955024,-0.0392301329642767,0.0437255975094468,-0.0108378297675827,-0.0123961937885414,0.100551515534962,-0.00397958041173243,0.00459543661189003,0.0123047990546568,-0.0115087032922612,-0.0229535666159703,0.0196956917814265,-0.00291552721076374,0.0385983319856037,-0.0339522390279181,-0.0225832613343034,-0.0149748420218285,0.00822117482600656,0.0774722644279594,-0.0325771420471598,0.0311594077956666,-0.0441255595203366,0.046079206176827,-0.00132652952016253,0.00301025896680818,-0.00536985614599657,-0.0234953469260034,0.0354901541453065,0.0419301932248684,0.0513441936685054],[0.0559721066328004,0.00573697519809878,-0.0159368566827557,0.00541696367557671,-0.0307847322407956,0.0127641037635415,0.0739279470477806,0.0548065601066711,-0.00637087130438427,-0.0526642411925495,-0.00653976027935306,0.0416801653030198,0.0447394669020805,0.0164398870503304,0.00637443624921691,-0.0205115943706439,0.0448810680339009,0.0211446121722502,0.0167697288907763,0.00309294013904815,-0.0490769390251056,0.0226010245482362,-0.0333222052762465,-0.0113644609001854,0.054438698966324,0.00988983239764433,0.0192599574173362,0.000797227483265142,-0.0187785445635723,-0.0853188696802624,-0.0234947335873758,0.0119771874718031,0.00468011353247186,-0.0118525997165456,0.0033853872144263,0.0546216963557477,0.0433821164204663,0.0153147954955904,-0.0302500447525577,-0.00457374357228561,0.0219820981500666,-0.0303692447961828,-0.0134131658933229,-0.053794756617339,-0.0433125543316561,-0.0542367078449224,-0.0186255902876668,-0.0487899093015465,0.00339233816923396,0.0206452975263713,-0.000940019853336246,0.0271373892162148,-0.0183480271507294,0.0458735690808743,0.0233914376669947,-0.0184083257672537,-0.023595773787084,-0.0463733297621644,-0.0459232428580193,-0.0247682686404249,-0.00309565218825962,-0.028195513380433,0.0296207830892549,0.0115860307555215,0.0414259377179542,0.127776232747384,-0.0252352604297493,0.0366974802264653,-0.0485549574012206,0.0359740556868559,0.0955621982423366,-0.0188977827812005,-0.00834280573289704,-0.0585635224775423,0.0650032854452646,-0.0573598767068594,0.0570421155698486,0.0147452037346899,0.0131154393305749,-0.0120885922190815,0.0100266909608161,-0.0352756065268709,0.015150067107425,0.0453185578399666,0.0143206495790928,-0.0749231779397493,0.00867799579888569,0.0119657337967634,-0.00496156087768836,0.01976233543738,-0.0121013147388648,-0.0167519695835517,-0.00328451691453432,-0.0428885074740713,-0.00257957496505082,0.0315449621103869,0.0489133675766886,-0.0137374132049715,0.0416129929117824,0.00405178165718096],[-0.0150443715815502,0.0172211489186599,-0.0864317725956433,-0.0423361157867352,-0.0323359513738756,-0.0592593221791566,0.0939458328776877,-0.0268305463820201,0.0359669887382239,-0.0315527342104666,-0.0281606085353122,0.0407486751924387,-0.00801324699670173,0.0199372164254089,-0.0102637144618832,-0.00789064088687327,0.0377031685473482,0.0420078017922456,0.039264769651424,-0.0159924690425373,-0.079590440613159,0.029979998466672,0.0557030888295695,4.71120639845311e-05,-0.00804883020687872,-0.00857803599469079,-0.0131855456928681,-0.0181450166603506,0.043462382952988,0.00550919023976682,0.0265921063512136,0.0566168560502584,0.0483746817139004,0.00689388580995635,-0.0476274818630235,-0.0192216829571895,-0.0223958276498124,0.00800915245377791,0.0142830020649101,-0.00658321192377344,-0.00935360715932418,-0.0179034660983191,0.0345054070358457,0.0600897404063065,-0.000327024318871414,0.0526016041641435,-0.029243928026421,0.00961660220471789,-0.0837549702217929,-0.0205017870888477,0.033286145566424,0.0472215418283581,-0.00752732427472445,0.0319808320973327,0.0281493791291918,-0.0270345912990512,0.00595303420489363,-0.0167653454869219,0.00953754723778849,-0.062467870319306,0.0460481811004418,0.0317092346695719,0.0558331155718494,-0.0117912549007374,-0.0811746688602138,0.0188067263944312,0.0322968962928865,0.0211197233308418,-0.0544548354045979,0.00383950081960698,-0.00201286203581707,0.0542460285454836,0.0122732844346848,-0.0239827533290639,-0.0829341012853632,0.0296703504738445,0.00795870881948927,0.00953569549364207,-0.0160953274169258,-0.0220030899739528,-0.0668763725296608,-0.0162374883162258,-0.0195419233384812,-0.0447724552968327,-0.0018476426969539,-0.0116905842692095,-0.0296448438653264,-0.0486908814968874,0.00517715072912516,0.0306947634378479,-0.0580292530670429,-0.00790442336913666,0.0397456766950895,-0.0142337857132717,0.0431346784434901,-0.075623383050929,0.0308964566206628,0.0519489064970346,-0.0154632301911201,-0.00578716836618552],[0.0616392498244387,-0.0130322820827409,0.00670228382455234,0.0067140870457083,-0.00368715734298605,0.0429451908028046,-0.0613405683075626,0.0168778636660613,-0.00335297144985188,-0.0374071988816997,-0.0163543200207751,-0.0335522490283978,0.0105903520800295,0.0266041776291813,-0.038558882527277,0.0281686875981495,-0.0389143345026907,-0.0584107972137126,-0.00893984858618806,-0.00541846075994513,0.0227915125371129,-0.0579527337755402,0.0631643103505282,0.039626614662881,0.0126679838698832,-0.0252052399185153,-0.0164628499965622,-0.0186154606632094,0.0345580008052178,0.0305275520205701,-0.040469399391214,-0.0168692260359053,0.0192422624867551,0.0102554679137354,0.0664714252102983,-0.045879516923467,0.00195929237183243,0.0669809272504552,0.0569907280543816,0.0222494217010362,-0.00516755086041156,-0.0393300939045357,-0.059568383237564,0.0384196499849666,-0.00284233416499574,0.00653009246075806,0.02245990142083,-0.00968180977923841,0.0402913203637964,-0.0827788692960956,0.0117191194354633,0.00240170643653479,-0.0450570949552335,-0.0494754636592643,-0.046030015554838,0.0183599459453173,0.0358691687956662,-0.0249992280261933,0.0738285450944192,0.0745634395560847,-0.0725771697240124,-0.0115991041598262,0.0809805832790368,0.021566680653191,-0.0281118605743014,-0.00219260033689578,-0.00862800247235996,-0.0228694709881057,0.00690296134364941,0.0033796100069126,0.060905649078442,-0.0353443933086921,0.0251523487962514,-0.0437692595386177,-0.0373557588013038,-0.0291540206161143,-0.0493213999898477,0.005615657168283,-0.0607497198468264,0.0240862165225069,-0.00327968085519084,0.0193833973659998,0.0301117287180107,-0.0253708004781617,-0.0269267409837708,-0.039232080630793,0.0363374285057423,-0.0359969033833139,0.00976583096855759,-0.0422566995038589,0.0424620880462127,-0.0473046949490995,0.0901324416691549,-0.00913590347738193,0.0517552372003034,0.0042213763648318,-0.0597828227269029,-0.0137077448624756,-0.0265930145318102,0.0227266699424123],[0.025300029674996,-0.0435307010778173,-0.0810841418055455,-0.0159544430042328,0.0399382106340306,-0.0330840118223829,-0.0166780392846778,0.0218232841890432,-0.0078262404047234,-0.0216557650823113,-0.0551202590773334,-0.0292871598247916,0.0624835350048693,-0.0205707797931096,0.0195931420532355,-0.0346014617011771,-0.00308849552307375,0.0167377494602273,-0.0310114461198377,-0.0710399224349412,0.0314799897716774,0.0445114264886395,-0.0235699069139936,-0.0297474988203754,0.0286002501913646,0.0184357821310696,-0.0091386363080475,-0.0512302164830757,-0.013893766996196,0.0394236236347629,-0.0378734698623393,-0.00762074408257914,-0.0388300867081537,-0.0704056353042891,0.112014640577367,-0.0363240842956685,0.0161899771773889,0.00012459073668461,0.0434746211649635,0.0607415490045925,0.029887476756518,-0.0028476400778384,-0.0122431135340847,-0.0175895799483172,0.0103929192986191,0.0264833235934644,0.0710457823684252,-0.0320338759298004,-0.00833127741673921,-0.0398098948922053,-0.0492277793209455,0.073748643828805,-0.0134909144409853,-0.0215236322497657,0.0496976224944145,-0.0190437787627669,0.0228434759335473,0.00709301235241076,-0.0264991067494419,0.0531906993882359,0.0579518983730101,0.00844242009495204,-0.0396288985700761,-0.0431744637368843,0.00839453698730274,0.0171734266932394,0.0883020114572107,-0.0364682099600783,-0.0583371689516811,0.0421647909706367,0.0580894611000053,-0.0337667943906784,0.00593444367453097,-0.0347000557467206,-0.0332952363053036,0.00570840289247791,0.0345671004666438,0.00785612459537649,-0.014973433166535,-0.00138689012483197,0.0680095753950711,0.00275247104739638,0.0253560907708834,0.0136945406202179,-0.0382156884861463,0.0870918840503899,-0.0203824206726782,-0.0111883908318129,-0.0187752569362053,0.0637225245724262,-0.059838825623397,-0.00314590417178236,-0.00688268374290405,-0.0265976273159323,-0.0251676131457375,-0.0204890205505563,-0.0243815112608691,-0.00943792735890591,0.0197448357575186,-0.0543970748567822],[-0.0104643334378905,0.0356139150981016,-0.00925232683639741,0.0277440246377643,0.0573940138781214,0.0623039097293934,-0.00724216821183989,0.0298432026343809,-0.00831674633169374,0.0467608508078267,-0.00838709066992263,0.0348365087933704,-0.0948840188535696,-0.0225933651325813,0.00186770850201149,-0.0895361161106808,-0.0522093813421155,-0.00775614403627052,0.0387082325294553,0.0503081801749476,-0.0256001470375706,0.0329361164011531,0.0375367186255158,-9.24586861734099e-05,-0.00636209123120363,0.00528798226564236,0.029132457827451,-0.000401390756717968,-0.0233916908002543,-0.0424015011413414,-0.0675779068439063,-0.039980018164594,0.0115070105743408,-0.0438611329624592,-0.0718084400911697,-0.0199342838539672,0.044973841626431,0.0133249777262351,-0.0191616504127545,0.0200862340801399,0.0201040177431145,-0.0433593147040951,-0.00255901508204599,0.00361553999091195,-0.00508359718381752,0.0583008681725361,0.0137701462947725,0.0816196135703432,0.0608911283857626,0.0370922911790485,0.0315550011324156,0.00895370829604334,-0.0330884253174761,0.0278949244315224,0.0155386577953555,0.0213988017454938,-0.0146328890497612,-0.0626136685963654,0.0308391565137214,-0.0173668915849828,-0.0311493975571609,-0.0248142437379446,0.058759014658266,0.00458343354134257,0.0339532572825942,0.0325115009828217,0.0695712407161846,0.0052343492105419,-0.00128232972625616,-0.0279720737263132,0.0581587289070583,0.0242853820449865,0.0358087981614953,0.01362910430556,-0.0489947053619608,-0.0108112058748997,-0.0183374227940078,0.0189026026687014,0.052400975990245,-0.0494826785078432,-0.00141594768165726,0.0174432395014275,-0.00365365025859441,-0.0059715264890901,0.0129663691692412,-0.00699834484438082,-0.0375666315118924,-0.0233400553527629,0.0348616482030774,-0.0362251934142143,0.0753325966858771,0.0359011639570594,-0.0108447492586262,0.0148465949624426,0.0297902994284777,0.0164825411347547,-0.0255221642249049,0.04288618360584,0.0147468292633721,-0.0138853731545932],[0.0178346736241471,-0.0197191448063437,-0.0456154844717377,0.0443892373467996,0.0705522676779611,0.0164062468934936,-0.00437937890348641,-0.0985882409501559,0.00815160390288077,-0.0401058581808822,-0.0515755406158972,0.0123835799683485,-0.0307405265973811,0.096015751470878,-0.0214118773702887,-0.000279603160848301,0.0166804289819847,-3.24445172980007e-05,0.0332537236473335,-0.00794331355954366,-0.0232252427053632,0.0567293288806278,-0.00734123659595842,-0.0151031655613252,-0.000340653047841832,0.0082858337072809,0.0114563785609044,-0.0163250043122895,0.0664519043068627,-0.0331432805350922,-0.0527167719349328,0.00617005344660181,0.0394907351841692,-0.0166535134940679,0.0474593187728927,-0.016472713321028,-0.0394353855526997,-0.0275556039367335,-0.0117330952160826,0.0121429874644388,-0.0266399195710202,-0.0214960468365429,0.0241064442838737,0.00592579443320612,0.0483787235882174,-0.0722297843102595,-0.0774820160481352,0.041323853564689,0.0649254042628334,0.00198296749430296,-0.0521143823124137,0.0135120245434335,0.0196503386220487,-0.0897469922147881,0.00927965297514652,-0.0594111220497017,0.0289220248631714,-0.0673836760477519,-0.0212327899426409,0.0338985491230392,0.0517011733078221,-0.0159887852056216,0.0136904308825014,-0.0425821992792571,0.0191291926828148,-0.0516738396546728,0.0181064486704947,-0.0520641323205062,0.025649946779729,-0.0844958638220514,-0.0204528568534237,-0.0315554314897199,0.00243093177361407,-0.00848807399218174,-0.0250599724733529,-0.0145397578349382,-0.0176691706520786,0.0752943080879039,0.0409635205080769,-0.0330821941829594,0.00737684619447304,-0.0123185497462115,0.0612331596399365,-0.0322760885772757,-0.00600569056045523,-0.0251083451924189,0.0360378105515531,0.0325158052329076,-0.0251920828949194,0.0341949108764758,0.0238145961440679,0.0114546953283732,0.0373789479253002,0.0262128361888708,-0.0216163574804214,0.0208394695520873,0.0197356177315158,-0.00114856666914923,-0.00685466862994603,0.0999610288687554],[0.0516772117257766,0.06824940063564,-0.0183837885781084,0.00542462694149223,0.0519469138678241,-0.0537182802964983,0.0422492998917577,0.0125668384761848,0.0685434553288703,7.84071503653789e-05,-0.000808530906268015,-0.0457347123573478,0.0228683114898832,-0.0521236144508225,0.0287003483017974,0.0178604692564945,0.0388459124918801,-0.0187417065302097,0.0774450936102075,-0.0608168050827733,0.0527727845879706,0.0260333190543026,0.00859512785350332,0.016114313318827,-0.0259849677675324,0.0207289255491855,0.0225634395342824,0.0136388741841577,0.0598460143465208,-0.0462905218200938,-0.0929913915024936,-0.0105260798607456,-0.0487115416641207,0.00425898259778411,-0.0605653867138058,-0.0261097651033758,-0.00209768309589295,0.00325136159038625,0.0191443486953894,0.0497209785113683,-0.000860814467303511,0.0251140132188108,0.0317786296885122,0.0108843077340532,0.0376157544352458,0.0768606256910072,0.00744678275966201,0.0592078910063304,-0.0041225817484469,-0.0312919843523298,0.0255661390222065,0.0827263685321901,0.0241054886826715,-0.040749221302677,-0.0595930053330042,0.0134800342930525,0.00706765770943652,-0.00663074323491053,0.0590707405371994,-0.0743288315904843,0.0505682564022848,0.0315767527184202,0.0441945321047045,0.00975037440792281,0.0160364144967848,-0.00883344886934199,-0.034191761362487,0.00731364524847902,-0.00331354347751403,0.00942563925879981,-0.0787536480494651,0.00949449926040261,0.0444363916423153,-0.0721479766134111,0.0414522933672795,0.00759428028619966,-0.0273368289859468,-0.0117546088156131,-0.0361498055332111,-0.0415349789965179,-0.0163380177686693,-0.028333765752423,0.0575029072299351,-0.0478132493832193,-0.0214123130997505,0.0575990905378286,-0.0599418835055654,-0.00444972860526404,0.0733614357987436,-0.0309000885302719,0.0271943781795415,0.0368585967144657,0.028534248707102,-0.0334771945355966,0.0202487434774354,0.02087517982509,0.074193156188825,-0.0419139174597493,-0.00753847489982855,0.0203858294886552],[-0.031647475369613,0.00589490569769945,0.0529801395073837,0.0097397349563959,0.0298792853714842,0.00330010571922389,-0.0106341533694328,-0.0256591605065959,-0.0426412578124987,-0.00839890239264311,0.00641821761098282,0.00355087551261919,-0.0339317152094464,0.0159456714758851,0.045720676981658,0.0478152107213602,-0.0251328205889666,0.0585646630246208,0.0295254691441584,-0.0341203921892691,-0.0569038494011202,0.00873456838737121,-0.00231790591815844,-0.0267494949466594,-0.0397306802995864,0.0540168464640287,0.056507931969522,0.0213308286885254,-0.0134890316658385,0.00714600742228779,-0.0209070745310857,0.0100574844735819,-0.000821811610190937,0.084163872626358,-0.0265311810247938,-0.0493695475408676,0.0330652860500788,-0.011657903840129,-0.00877655311895873,0.0150408293965855,-0.0198252424513336,-0.00419603264962264,-0.0191564543364798,0.0843305296308885,-0.0861291022796022,0.0151927684094392,-0.00329544182388437,-0.00796111157590814,-0.0167173942243897,-0.0174034856645421,-0.00404825866248887,0.0411672865354093,-0.0133996357215792,-0.0323721903949864,0.0332815893321574,-0.00807950510146362,-0.0248757594146147,-0.0306265184933346,0.075602837464424,-0.0268668968806364,-0.00559227428989242,0.0564989104685164,0.0141524880396157,0.00754084171824605,0.0136100415912646,-0.0181807761635649,0.0419945071671047,-0.0701224039223686,0.00861477070630028,0.00390299974644663,0.0469550505967017,0.0421537817542341,0.0273756487468053,-0.0458768378875481,-0.00768270278682879,0.0501264017608505,-0.0415306398414058,0.0446545984580813,-0.0388238297516187,-0.0598199136497228,0.00260599551228918,-0.0331189448731424,0.0423742294074997,0.0694261848984347,0.00271576530845694,0.00264951341571538,0.0597402066061321,-0.00095958593543107,-0.0139032595317137,0.0351433552917387,-0.001530518788305,-0.029811177742675,-0.0645163737749807,